svm_type c_svc
kernel_type rbf
gamma 0.5
nr_class 2
total_sv 2358
rho 0.0757472
label 0 1
nr_sv 1175 1183
SV
0.8707053683687951 1:5204.4359 2:646.34373 
1 1:5029.4401 2:473.29233 
1 1:5119.0119 2:579.66193 
0.9262665696298326 1:5033.1775 2:481.74166 
0.8333434163243527 1:5124.1763 2:547.41851 
1 1:5056.3234 2:465.11311 
1 1:5193.5344 2:633.63717 
1 1:5151.1386 2:585.4555 
1 1:4910.1537 2:414.30128 
1 1:4996.985 2:470.84947 
0.4547019615258832 1:5025.7206 2:451.1887 
1 1:5012.165 2:492.12557 
1 1:5146.6791 2:684.08099 
1 1:5069.7738 2:677.99908 
1 1:5151.1762 2:792.72607 
1 1:5211.8386 2:757.92816 
1 1:5118.3188 2:710.87039 
1 1:4954.1973 2:575.56138 
1 1:4956.611 2:604.41443 
0.9273575459802222 1:5071.8995 2:604.62486 
1 1:5085.0659 2:594.71344 
1 1:5073.7723 2:610.08484 
1 1:5086.8206 2:653.23392 
1 1:4861.6026 2:378.3499 
1 1:5047.126 2:538.17281 
1 1:5065.4882 2:543.04394 
1 1:5103.1036 2:547.30291 
1 1:4802.7272 2:589.93591 
1 1:4943.5228 2:544.34551 
1 1:4968.7892 2:400.33187 
1 1:5180.633 2:589.12751 
1 1:5156.5343 2:605.61131 
1 1:4973.7475 2:444.77906 
1 1:5036.7034 2:601.97404 
0.8741076282062912 1:4997.7903 2:424.61112 
0.6147418676701487 1:5045.084 2:493.59384 
0.6573059860739489 1:5127.458 2:556.822 
1 1:5201.0705 2:655.0307 
1 1:5098.745 2:526.31619 
0.9351015338079427 1:5157.2877 2:578.01428 
1 1:5167.5229 2:633.3444 
0.8182469745648328 1:5048.0432 2:473.73364 
0.6922715782039895 1:4913.043 2:398.78711 
1 1:4867.1113 2:375.35928 
1 1:4979.7475 2:413.06233 
0.9778283991223566 1:5174.621 2:589.92796 
1 1:5236.0738 2:667.58545 
1 1:5101.1239 2:535.4853 
0.7431479591487472 1:5105.2518 2:516.13966 
1 1:5108.5551 2:521.05311 
1 1:5246.1723 2:697.41467 
1 1:5154.9216 2:561.52863 
0.5327469360581485 1:5103.8268 2:516.13485 
1 1:5256.9834 2:703.68486 
1 1:4988.0485 2:449.23452 
1 1:5088.1512 2:546.04072 
0.7026398322627889 1:5071.8134 2:494.58002 
1 1:5029.2258 2:449.00299 
1 1:4809.7766 2:482.93314 
1 1:4944.8959 2:409.57737 
1 1:4952.3763 2:395.03958 
1 1:5116.9431 2:545.60584 
1 1:5025.7705 2:431.60013 
1 1:5197.3751 2:648.26982 
0.9783694499315704 1:5176.9156 2:589.92479 
0.8310712349878977 1:5199.2956 2:645.69401 
1 1:5205.8612 2:621.7234 
1 1:5253.9808 2:691.46836 
1 1:5045.2438 2:458.78647 
0.9170727235052856 1:5096.5753 2:558.57779 
1 1:4932.9121 2:519.89083 
0.9578203209815894 1:5022.9445 2:437.75761 
1 1:5041.3398 2:488.03 
0.7525629273437608 1:5117.9428 2:566.2197 
0.8203761631201193 1:5155.2735 2:569.32879 
0.6948011265118326 1:5197.6802 2:607.44831 
0.7280378452391506 1:5125.1853 2:585.04017 
0.8408032818395987 1:5121.1717 2:562.31566 
0.6943135272097795 1:4921.4692 2:389.21859 
1 1:5004.5522 2:427.30949 
0.4898806375276226 1:5126.4959 2:549.90873 
1 1:5079.4258 2:553.18793 
0.4552588887009523 1:5182.9668 2:589.49356 
1 1:5246.6032 2:660.81028 
0.9693490819922018 1:5253.6353 2:677.12517 
0.7664757049308095 1:5243.4132 2:658.47314 
0.6638522887221106 1:5208.5495 2:619.2157 
0.9806084624844065 1:5350.4809 2:757.25851 
1 1:5298.1658 2:715.81567 
1 1:5299.1034 2:705.31377 
0.7830989048430388 1:5342.8853 2:755.61818 
0.8194559494720026 1:5213.7069 2:628.59884 
1 1:5276.5431 2:686.97181 
1 1:5223.2496 2:638.1266 
0.8109353411780678 1:5267.0621 2:674.94417 
1 1:5360.0371 2:782.89472 
1 1:5189.5976 2:614.59258 
0.3851473057628475 1:5253.6736 2:681.61291 
1 1:5326.3834 2:759.13144 
0.5669575038024109 1:5383.8583 2:799.77131 
1 1:5275.6617 2:729.10272 
1 1:5207.3561 2:679.6234 
1 1:5250.2837 2:654.74878 
0.97525528629647 1:5280.3224 2:706.25573 
0.9283891090029835 1:5173.3929 2:592.61934 
0.9388175700444146 1:5167.9205 2:584.75766 
0.9851380540037372 1:5217.3952 2:635.93224 
0.746086455848416 1:5156.3207 2:583.87598 
0.5568491270476323 1:5016.5613 2:457.99972 
0.979373148227328 1:5055.2086 2:496.1357 
1 1:5150.3574 2:619.01244 
1 1:5049.1531 2:501.19204 
1 1:5064.1269 2:517.73273 
1 1:4987.9481 2:465.62751 
1 1:4987.9417 2:535.28644 
1 1:5272.9435 2:706.9461 
1 1:5289.2752 2:775.60631 
0.6678237273557437 1:5164.4609 2:571.57833 
0.6080779228366667 1:5128.3791 2:557.14268 
1 1:5188.362 2:604.05975 
0.8229385230932517 1:5214.7337 2:627.45681 
1 1:5256.7875 2:661.78383 
1 1:5210.4773 2:646.41018 
1 1:5163.4912 2:586.26471 
0.9079875788466216 1:5047.3628 2:475.66198 
1 1:4928.8908 2:499.06505 
0.9830512137491075 1:5296.5588 2:719.99844 
1 1:5188.5741 2:607.91712 
0.9288982849546762 1:5157.4248 2:580.38965 
0.992467767891877 1:5159.4854 2:577.54153 
0.6635896648751395 1:5009.8569 2:500.16347 
0.6551153617204335 1:5165.4191 2:571.76037 
1 1:5067.9745 2:480.34755 
1 1:5172.3284 2:587.66637 
1 1:5133.6028 2:572.08167 
0.9472354010130086 1:5064.1752 2:506.97645 
1 1:5095.3785 2:519.62788 
1 1:5028.8397 2:461.6811 
0.7738946652592434 1:5154.9005 2:566.89274 
0.8472710326725904 1:5080.2142 2:502.59153 
0.6808801403315953 1:5006.3988 2:431.29172 
1 1:5109.4641 2:578.66146 
1 1:5127.8421 2:543.17689 
0.6700047991526382 1:5252.8994 2:680.75885 
1 1:5204.9562 2:673.89427 
0.706312639101262 1:5151.9663 2:568.21521 
1 1:5200.0721 2:621.55561 
1 1:5144.3302 2:655.69439 
0.9117141440909438 1:5321.4731 2:746.68112 
1 1:5263.6023 2:700.85376 
1 1:5227.942 2:674.43587 
1 1:5175.6844 2:618.93853 
1 1:5162.3115 2:613.91317 
1 1:5181.1469 2:599.98752 
0.9273008440658781 1:5072.0788 2:602.71873 
1 1:5105.6222 2:558.8024 
1 1:5117.2921 2:593.6399 
1 1:5075.3651 2:511.23207 
0.9869028835146059 1:5009.2777 2:461.6855 
1 1:4930.0281 2:405.75427 
1 1:5029.6834 2:515.66329 
1 1:5099.9972 2:538.73429 
1 1:5133.334 2:654.92045 
1 1:5227.9225 2:670.76457 
1 1:5054.5225 2:545.99659 
1 1:5010.6807 2:503.36211 
1 1:5387.3993 2:814.88492 
1 1:5308.0162 2:712.33218 
1 1:5399.7465 2:815.46711 
1 1:5329.1682 2:737.13782 
1 1:5381.4471 2:795.78219 
1 1:5371.6626 2:776.82238 
1 1:5305.7969 2:717.6059 
1 1:5287.3556 2:695.37587 
1 1:5372.6774 2:789.83306 
1 1:5115.4929 2:570.81716 
1 1:5152.9588 2:588.80564 
0.6267024566199931 1:5155.4467 2:640.10035 
0.8826207430236251 1:4998.2264 2:466.41255 
1 1:4974.1849 2:516.7832 
1 1:5051.6558 2:619.20381 
1 1:5191.8899 2:613.17226 
1 1:5109.2435 2:534.76337 
1 1:4895.3115 2:367.03162 
1 1:5019.9493 2:483.79437 
1 1:5112.0619 2:547.76074 
1 1:5034.2627 2:464.40675 
1 1:4984.3886 2:408.25242 
0.7853411323993887 1:5205.0917 2:635.90282 
1 1:5163.4299 2:588.90445 
0.9756147464665471 1:5279.3849 2:704.3402 
0.6332401142744661 1:5344.1437 2:756.57564 
1 1:5275.839 2:699.77521 
1 1:5207.3558 2:631.54517 
1 1:5311.3841 2:741.4371 
1 1:5319.4946 2:748.13593 
1 1:5376.2796 2:803.21057 
1 1:5278.4814 2:711.88734 
0.9170774749758284 1:5266.3561 2:677.29046 
1 1:5162.8557 2:627.30236 
1 1:5101.8462 2:520.68233 
0.5304349584955111 1:5125.9718 2:586.33139 
1 1:5115.8382 2:575.14013 
1 1:5037.0072 2:579.89883 
1 1:5100.5874 2:592.44385 
1 1:5088.2419 2:527.9979 
1 1:4733.3971 2:529.66255 
1 1:4680.8671 2:554.06061 
1 1:4895.2929 2:382.71457 
1 1:4842.8698 2:441.41212 
1 1:4849.7867 2:493.59932 
1 1:4976.0873 2:465.37436 
1 1:4921.16 2:517.42911 
1 1:5099.2089 2:587.33504 
0.8559624380996012 1:5239.0888 2:651.00828 
0.7810864006145256 1:5293.9286 2:725.06791 
0.8595555063890313 1:5219.2199 2:634.82376 
1 1:5232.4555 2:671.76495 
1 1:5090.2918 2:507.51446 
0.7537911945668024 1:5214.5804 2:632.09863 
1 1:5217.2195 2:630.36585 
1 1:5284.5834 2:726.08742 
0.7361537326436595 1:5270.6081 2:677.09331 
1 1:5295.3467 2:745.02009 
1 1:5267.6704 2:686.82727 
1 1:5402.8196 2:826.9556 
0.7237294148150026 1:5346.2719 2:755.9456 
0.5678338062725409 1:5383.9992 2:800.21881 
0.8303172416000678 1:5322.107 2:726.16543 
1 1:5341.8817 2:752.28664 
1 1:5322.5139 2:737.11707 
0.9473384986373807 1:5304.9828 2:709.72463 
1 1:5322.086 2:733.05274 
1 1:5333.4705 2:742.99549 
1 1:5381.4806 2:791.83111 
1 1:5294.0617 2:705.26124 
0.9422960903850697 1:5312.8219 2:722.70584 
1 1:5294.411 2:696.04975 
0.7830275303279195 1:5323.6129 2:727.2102 
1 1:5343.1262 2:748.07838 
0.4384884873623136 1:5322.0406 2:727.91675 
1 1:5282.1807 2:684.44592 
0.3983765232222904 1:5261.1573 2:674.11017 
1 1:5332.5096 2:751.46686 
0.893614782763783 1:5248.6496 2:667.36952 
0.5760870320242428 1:5358.2186 2:761.32435 
0.7382995509998138 1:5192.2978 2:617.84402 
1 1:5272.1357 2:682.94736 
0.6798192084840895 1:5321.6265 2:729.3042 
0.9824177280258621 1:5303.7604 2:713.50872 
0.9502707314573148 1:5209.5437 2:620.89037 
1 1:5317.8759 2:725.7473 
0.942342717950961 1:5314.3418 2:721.44079 
1 1:5341.1167 2:745.29427 
1 1:5350.6375 2:761.32039 
0.91928303112183 1:5238.833 2:642.13082 
0.9101671942360539 1:5262.6156 2:675.04947 
1 1:5264.1528 2:667.20791 
0.6631344815291864 1:5268.924 2:670.81153 
0.9509794527953271 1:5207.0561 2:617.03649 
0.952895141469555 1:5221.2748 2:666.32662 
1 1:5144.7497 2:605.54866 
1 1:4919.2513 2:345.10161 
0.8266625994989111 1:5126.0825 2:540.10104 
0.9891211166644902 1:5012.1929 2:472.72918 
0.9928786436257149 1:5158.39 2:596.4949 
1 1:4988.6446 2:585.07988 
1 1:4807.0999 2:451.36462 
1 1:4540.2014 2:898.06412 
0.2702930797945184 1:5183.527 2:620.34693 
1 1:5011.0275 2:422.42036 
1 1:5108.821 2:592.62899 
0.6073989345943871 1:5123.3114 2:548.64768 
1 1:5233.18 2:644.08576 
0.6905035046443789 1:5286.0897 2:705.66911 
1 1:5266.3285 2:684.50686 
1 1:5342.3974 2:783.65279 
0.7298554133514696 1:5288.109 2:702.52246 
1 1:5066.8634 2:603.74333 
0.7866800799914609 1:5293.0803 2:726.19553 
1 1:5211.5673 2:633.20832 
0.9101991308276611 1:5284.7996 2:704.48204 
0.7400851033017013 1:5232.6831 2:655.33563 
0.889531476548915 1:5140.3978 2:576.2816 
0.7487362160178741 1:5060.6745 2:515.23296 
0.5432581111081438 1:4907.1382 2:388.23015 
1 1:5013.5788 2:514.29977 
1 1:5198.8668 2:629.12923 
1 1:4987.5243 2:417.91067 
1 1:4874.7263 2:402.9793 
1 1:4963.9799 2:392.92735 
1 1:5035.6383 2:491.75226 
0.8423410358702944 1:5065.6444 2:505.65617 
1 1:4988.7008 2:505.30815 
0.9671341217396517 1:4886.6744 2:410.51762 
1 1:4909.2488 2:535.75387 
1 1:4932.785 2:592.97831 
1 1:4736.1068 2:322.68913 
1 1:4821.6485 2:382.24169 
1 1:5055.2108 2:550.74564 
1 1:4981.5317 2:467.74694 
1 1:4954.9788 2:393.03998 
1 1:4676.9875 2:638.74172 
1 1:4759.5015 2:345.49774 
1 1:5011.8559 2:524.44276 
1 1:4960.9474 2:462.8142 
1 1:4962.3999 2:489.86625 
1 1:4933.8934 2:691.79444 
1 1:5159.8705 2:625.25075 
1 1:5119.5997 2:528.18801 
1 1:5188.4644 2:632.06782 
1 1:5214.6387 2:660.64271 
1 1:5237.0046 2:701.28602 
1 1:5246.0268 2:711.99256 
1 1:5282.7796 2:747.93569 
1 1:5279.6164 2:745.15844 
1 1:5135.4244 2:573.7321 
1 1:5262.2304 2:727.83686 
1 1:5288.4223 2:728.04258 
1 1:5142.6102 2:570.40123 
1 1:5289.7974 2:802.76369 
1 1:5276.0564 2:762.751 
1 1:5226.6218 2:769.9027 
1 1:5241.3371 2:719.76309 
1 1:5182.751 2:689.42716 
1 1:5236.2722 2:706.05733 
1 1:5308.4751 2:784.82931 
1 1:5178.6331 2:643.68384 
1 1:5282.7564 2:742.25586 
1 1:5239.436 2:684.07448 
1 1:5245.5828 2:752.84613 
0.8834699828047551 1:5122.4357 2:553.97255 
0.9841310228445315 1:5222.353 2:668.20394 
1 1:4810.9864 2:513.72306 
1 1:5073.4524 2:562.45917 
0.007225390138576301 1:5139.98 2:573.16659 
1 1:5089.9459 2:559.45942 
0.796082876340375 1:5189.5382 2:620.74104 
0.6678057745887966 1:5152.6649 2:578.25127 
1 1:5221.6799 2:661.64619 
1 1:4937.0423 2:463.1518 
1 1:4871.0386 2:345.92423 
0.9981072816359375 1:5008.9157 2:459.46083 
1 1:5049.9529 2:648.33592 
1 1:5195.6773 2:908.94128 
1 1:5195.5727 2:901.21268 
1 1:5214.8033 2:846.37231 
1 1:5189.5238 2:848.44859 
1 1:5159.2293 2:834.35448 
1 1:5166.7077 2:864.11908 
1 1:5035.4059 2:990.49033 
1 1:4884.2769 2:857.41805 
1 1:4981.9168 2:795.93888 
1 1:4956.1188 2:597.25018 
1 1:5003.8931 2:607.97589 
1 1:5138.6378 2:714.27397 
0.764973335672024 1:5248.9024 2:676.14317 
0.762256321114437 1:5223.8134 2:663.79623 
1 1:5167.2909 2:574.36471 
0.9438058755190711 1:5202.8941 2:643.63056 
0.8619389063111272 1:5295.0091 2:721.9313 
1 1:5240.5005 2:658.74823 
0.9597553944688317 1:5319.5589 2:739.73607 
1 1:5334.705 2:778.64508 
1 1:5241.4785 2:692.86176 
1 1:5263.7057 2:692.5106 
0.9413501961859549 1:5345.0236 2:765.8614 
1 1:5327.1265 2:755.28819 
1 1:5393.313 2:810.36552 
1 1:5390.6271 2:795.36537 
1 1:5357.251 2:774.34051 
0.8124224550701905 1:5304.6346 2:711.62033 
1 1:5316.9395 2:730.40949 
0.4306454991695257 1:5347.647 2:756.88944 
1 1:5357.8877 2:764.47279 
1 1:5375.3239 2:788.60348 
0.6255436250288789 1:5348.3928 2:757.24841 
1 1:5336.0662 2:740.58623 
1 1:5042.9465 2:645.97844 
1 1:5196.6816 2:887.4977 
1 1:5221.7855 2:980.60766 
1 1:5095.7359 2:769.05809 
1 1:5208.9537 2:899.02998 
1 1:5144.7891 2:831.32485 
1 1:5086.0977 2:798.95558 
1 1:5126.8193 2:814.8332 
1 1:5126.8605 2:735.52394 
1 1:5078.8342 2:756.82421 
1 1:5176.1518 2:943.87548 
1 1:5022.3054 2:730.44882 
1 1:4996.224 2:551.54542 
1 1:5154.0137 2:619.26178 
1 1:5137.1505 2:585.15013 
1 1:5103.7626 2:523.02724 
1 1:5213.7283 2:671.18405 
1 1:5042.2293 2:511.09055 
1 1:5028.8842 2:533.53423 
0.8555859547956156 1:5132.4041 2:550.63886 
1 1:5100.2364 2:575.59404 
0.997943008063542 1:5143.7865 2:552.77611 
1 1:5153.2131 2:582.04056 
1 1:5141.3649 2:567.74021 
0.6056040234908364 1:5100.3841 2:509.95451 
1 1:4782.2053 2:489.11087 
1 1:4902.6622 2:509.20045 
1 1:4985.5763 2:531.84324 
1 1:4913.9971 2:537.91919 
0.9973841097321491 1:5184.5626 2:606.14354 
0.672812934744519 1:5009.2332 2:499.38186 
1 1:4963.4233 2:602.85231 
1 1:4869.4462 2:648.36278 
0.9601666741852157 1:5148.4702 2:555.77857 
0.7543015761880818 1:4959.5234 2:412.50002 
1 1:4907.7769 2:384.81176 
1 1:5068.4742 2:512.75222 
1 1:5018.0877 2:507.04363 
0.8439992766811435 1:5127.5107 2:536.87971 
0.9958521861422309 1:5061.1455 2:476.1149 
0.939109140886819 1:5169.4879 2:583.57379 
1 1:4839.7325 2:369.5324 
0.6276869128991183 1:5024.6001 2:450.03711 
0.6943135271933321 1:4920.8834 2:390.14299 
0.7742804425366692 1:5061.4331 2:490.1936 
0.6818755030567926 1:5038.8393 2:537.88403 
1 1:5033.8984 2:497.99558 
1 1:4958.6144 2:396.87359 
1 1:4832.6316 2:566.28064 
1 1:5145.1694 2:583.7979 
0.9940317926773349 1:5174.2783 2:613.98858 
1 1:5074.4382 2:484.86822 
0.8674976451983366 1:5128.1207 2:535.31755 
0.5607489437737081 1:5051.9335 2:481.90234 
0.3163951073283046 1:5132.8988 2:549.4057 
1 1:4949.5673 2:392.66791 
1 1:4958.7938 2:466.67094 
1 1:5089.9007 2:517.19566 
1 1:5109.5548 2:529.74697 
0.550432314076802 1:5052.2271 2:481.62615 
1 1:5248.3587 2:733.65474 
1 1:5449.4911 2:1066.9576 
1 1:5443.0679 2:1029.0949 
1 1:5440.2388 2:1015.5659 
1 1:5484.4944 2:1098.9935 
0.6686080932586954 1:5487.647 2:1072.9776 
1 1:5435.0527 2:1013.1716 
1 1:5463.2818 2:1019.9472 
1 1:5469.8259 2:1077.2519 
1 1:5454.7158 2:1056.1236 
1 1:5367.7458 2:909.06777 
1 1:5090.3549 2:596.95975 
0.6325258082803984 1:5070.9942 2:495.68899 
1 1:5009.2198 2:494.05565 
1 1:4995.1529 2:431.04707 
1 1:4941.4632 2:474.09325 
1 1:4780.672 2:514.48258 
1 1:4840.5291 2:377.05623 
1 1:4788.9998 2:436.25908 
1 1:4981.8653 2:523.12486 
1 1:4845.4606 2:334.04952 
1 1:4881.9752 2:361.98248 
1 1:4968.7437 2:405.10559 
1 1:5058.6285 2:578.34867 
1 1:5264.2537 2:921.68675 
1 1:5327.5976 2:974.36342 
0.8478969956248918 1:5304.0347 2:898.18368 
1 1:5255.5208 2:875.69451 
1 1:5286.0526 2:935.5417 
1 1:5243.7819 2:921.14388 
1 1:5192.2664 2:685.91015 
1 1:5236.9272 2:911.3145 
1 1:5295.2642 2:851.46659 
1 1:5272.9883 2:933.02881 
1 1:5303.022 2:970.17827 
1 1:5108.7676 2:637.27536 
0.6312817732671897 1:5038.4868 2:481.60693 
1 1:5077.0846 2:537.20768 
1 1:5099.4444 2:530.05132 
1 1:4938.4854 2:449.46681 
0.9646434948044821 1:4972.9799 2:399.00307 
1 1:4965.6446 2:579.39564 
1 1:5124.7028 2:544.52173 
1 1:5051.7651 2:477.94139 
1 1:5043.803 2:482.87288 
0.8139202151798385 1:5137.9107 2:587.87199 
1 1:4916.8196 2:371.56664 
1 1:5150.4403 2:626.2691 
1 1:5442.1245 2:1007.7912 
1 1:5412.5086 2:1022.9727 
1 1:5363.2648 2:969.0105 
1 1:5381.8141 2:1044.2656 
0.6686080932586953 1:5488.2656 2:1072.1962 
1 1:5458.2064 2:1021.9806 
1 1:5453.3511 2:1016.2279 
1 1:5445.8589 2:1055.0586 
1 1:5396.6872 2:955.17712 
1 1:5391.7489 2:965.11238 
1 1:5319.9713 2:839.91391 
1 1:5014.0213 2:616.97714 
1 1:5325.9975 2:764.73528 
0.9414064838068552 1:5346.438 2:767.23751 
0.803020409875054 1:5248.1282 2:681.51866 
0.5277182158923803 1:5119.8647 2:563.7356 
0.886276068070007 1:5293.9123 2:720.46093 
0.6925208722997473 1:5161.5076 2:580.32481 
0.9050094072347524 1:5230.681 2:656.57326 
1 1:5306.5949 2:732.64461 
0.760343771783873 1:5254.6253 2:680.70908 
0.9214799653814345 1:5285.4808 2:707.34488 
1 1:5180.9127 2:595.08425 
1 1:5056.0239 2:559.17754 
1 1:5148.3756 2:567.42485 
0.7598128582724759 1:5183.6459 2:620.31284 
0.5019560732535504 1:5125.8627 2:549.21833 
0.6877446101295498 1:5090.2658 2:525.79338 
1 1:4895.6828 2:563.68607 
1 1:4875.323 2:332.78703 
1 1:4870.7321 2:587.24309 
0.709914838462668 1:5173.9811 2:611.9189 
1 1:5169.625 2:601.69498 
0.9633538209356987 1:5182.0629 2:618.35586 
0.9180430871339355 1:5175.6496 2:610.26272 
0.7172876760118767 1:5151.1105 2:569.04334 
1 1:4940.8642 2:391.61066 
0.4154195813280504 1:5173.8398 2:610.66874 
0.8974010878382777 1:5115.8683 2:521.70138 
1 1:5206.3674 2:643.95986 
1 1:5140.1511 2:572.73647 
0.6133645325745074 1:5044.3671 2:493.35458 
0.8984191179156851 1:5124.7891 2:533.14748 
0.8638560589905648 1:5148.0333 2:557.76243 
1 1:5134.3484 2:605.69235 
1 1:5126.1418 2:593.01676 
1 1:5085.8883 2:591.04678 
0.4468653123472353 1:5243.8528 2:651.94637 
0.9172551961174171 1:5096.9648 2:556.7448 
0.8016646781630801 1:5050.9366 2:470.47956 
0.6818755030567955 1:5038.0331 2:537.21367 
1 1:5061.9411 2:504.41918 
0.5398810664599951 1:5173.7911 2:605.45926 
0.8534301271875985 1:5134.0013 2:579.37259 
1 1:5330.6412 2:748.32596 
0.8787416517050071 1:5220.1325 2:638.59972 
0.4883273675389937 1:5344.807 2:755.21128 
0.9897431415671092 1:5030.32 2:468.92703 
1 1:4948.0807 2:454.46609 
1 1:5123.3783 2:710.25265 
1 1:5097.7986 2:570.35893 
1 1:5174.0987 2:738.63293 
1 1:5042.9609 2:745.32539 
1 1:5162.8779 2:709.79364 
1 1:5065.2233 2:700.05321 
1 1:5189.1976 2:667.07503 
1 1:5143.2706 2:725.61796 
0.9887640757175551 1:5010.0184 2:473.09815 
1 1:5267.7393 2:813.626 
1 1:5092.4428 2:612.8543 
1 1:5036.5896 2:465.06052 
0.8691919496808913 1:5046.1482 2:473.74954 
0.7062986864970083 1:5199.5076 2:633.91517 
1 1:5100.2562 2:505.53599 
0.97301767079999 1:5021.2261 2:439.02651 
1 1:4890.1342 2:334.40412 
0.9735393917597774 1:5243.4744 2:682.73975 
0.6793589605400052 1:5198.6803 2:626.78583 
1 1:5041.5746 2:528.49427 
0.9109317430355134 1:5121.7673 2:564.36666 
1 1:5177.4123 2:602.43878 
1 1:5034.8471 2:469.91957 
1 1:4969.0471 2:504.2726 
1 1:5216.6728 2:952.37962 
1 1:5333.0777 2:944.80869 
1 1:5324.9278 2:950.76391 
1 1:5174.8325 2:799.67784 
1 1:5297.2091 2:1016.1341 
1 1:5290.6236 2:937.8222 
1 1:5268.4522 2:860.86652 
1 1:5230.0459 2:870.00305 
1 1:5264.7585 2:880.12267 
0.8471584705686547 1:5305.6534 2:898.13741 
1 1:5058.875 2:742.39366 
1 1:5046.1769 2:507.59174 
0.7386483270948883 1:5192.9151 2:618.93449 
1 1:5146.9515 2:572.70595 
0.7120080786613165 1:5089.9481 2:532.05855 
1 1:4951.3258 2:427.6379 
0.940347314590777 1:5035.1408 2:460.46744 
1 1:5040.8529 2:469.25381 
0.8786294826604033 1:4998.8854 2:468.02355 
1 1:4867.4376 2:404.28305 
1 1:4891.4067 2:421.4973 
1 1:4977.0888 2:474.43164 
1 1:5010.352 2:433.65595 
1 1:5192.7014 2:624.66849 
1 1:5007.731 2:446.05699 
0.8875710321517353 1:5123.5116 2:531.88436 
0.9662551616138247 1:5158.4695 2:582.31881 
0.6895659824543672 1:5232.5102 2:656.87518 
0.7109816239511099 1:5090.9783 2:531.53198 
1 1:5026.1692 2:608.32018 
1 1:5183.5445 2:663.72865 
0.626702456619993 1:5156.1289 2:640.55105 
1 1:5169.5991 2:608.65423 
0.7955354413564963 1:5200.5304 2:644.75389 
0.8108171996687529 1:5247.7309 2:680.0838 
1 1:5245.6228 2:693.99263 
0.5173715152994225 1:5205.0569 2:638.95791 
1 1:5146.1177 2:664.03631 
1 1:5135.1872 2:618.1619 
1 1:5024.3211 2:452.79839 
1 1:5188.8628 2:650.91261 
1 1:5204.6297 2:654.14018 
0.8497855098404296 1:5206.1537 2:646.58524 
1 1:5304.2426 2:751.27206 
0.8411489608507582 1:5314.8405 2:750.33916 
1 1:5329.0831 2:761.35302 
1 1:5186.6243 2:685.02739 
0.9678481681118311 1:5323.5036 2:747.05532 
0.9296437406968855 1:5321.7998 2:739.27162 
0.8090934646526302 1:5243.2033 2:650.88666 
1 1:5123.6098 2:568.20011 
1 1:5114.5586 2:642.64374 
1 1:5261.7724 2:683.91546 
1 1:5295.953 2:753.52794 
1 1:5277.0556 2:690.90598 
0.8939588952825142 1:5245.4058 2:651.63228 
0.9081591164424573 1:5319.876 2:729.44234 
1 1:5301.289 2:708.9814 
1 1:5098.9423 2:543.61941 
0.9827444617233735 1:5028.7577 2:467.17475 
1 1:4930.7328 2:387.07598 
0.8224969697308221 1:5158.059 2:593.14592 
0.9012671787847439 1:4995.335 2:450.28624 
0.9205472264970188 1:5067.2989 2:508.93623 
1 1:4991.4519 2:425.40071 
1 1:4923.8238 2:533.16252 
1 1:4913.0852 2:465.04208 
0.7371989542829223 1:4960.6789 2:411.92717 
1 1:5099.2025 2:533.80849 
1 1:5005.2627 2:496.1821 
0.628628787870159 1:5125.3819 2:550.66302 
0.7198728440065751 1:5183.7413 2:589.12172 
1 1:5024.0906 2:502.92879 
0.7126708473889828 1:5114.6265 2:540.78127 
1 1:5150.2466 2:595.43951 
1 1:5113.6839 2:562.02847 
1 1:5195.0321 2:606.64229 
1 1:5041.4657 2:480.73564 
0.7895945753797132 1:5175.9586 2:585.2226 
0.2597919438995592 1:5116.8629 2:539.69725 
0.826578906665656 1:5052.6242 2:515.45847 
0.7561234606719341 1:5130.0794 2:554.87637 
0.557015935700937 1:5016.2635 2:457.76765 
1 1:5051.5568 2:554.6545 
1 1:5110.987 2:533.11663 
1 1:5085.0217 2:557.69901 
0.5490541547809142 1:4907.3873 2:388.07735 
0.5272430203803991 1:5037.8477 2:481.46129 
0.8973323992132278 1:5114.8133 2:520.24531 
0.6650047425126953 1:4913.0997 2:389.35267 
1 1:4976.8398 2:572.61137 
1 1:5077.7186 2:578.20957 
1 1:4984.828 2:460.52104 
0.4122181296967039 1:5089.8933 2:526.04409 
0.7153809772175981 1:5104.9824 2:564.73446 
1 1:4990.0731 2:460.28547 
1 1:4943.7663 2:541.52626 
1 1:5121.7288 2:537.17347 
1 1:5106.3634 2:527.59403 
1 1:5193.666 2:636.19783 
1 1:4926.9526 2:405.55468 
1 1:4784.8967 2:393.98342 
0.9963859484992096 1:4973.2903 2:401.22019 
1 1:4949.6877 2:448.71218 
1 1:4903.8848 2:372.68365 
1 1:4998.0401 2:429.58803 
1 1:5177.6607 2:582.49524 
1 1:5247.2497 2:669.75768 
1 1:5212.4631 2:642.80087 
0.7175362423078269 1:5155.0271 2:565.24554 
0.6906358555159408 1:5147.0435 2:564.1097 
0.5405626030077066 1:5115.6597 2:538.63986 
0.9989928955569624 1:5094.3898 2:525.55122 
0.835443858694391 1:5067.3864 2:507.09436 
1 1:5120.3157 2:567.26366 
1 1:5197.7179 2:613.32735 
0.9194519126379868 1:5238.7226 2:644.01019 
0.6631437284753572 1:5269.7803 2:671.27752 
0.8884832570822625 1:5047.5162 2:470.09767 
1 1:5157.898 2:574.70216 
1 1:5222.2394 2:643.59982 
1 1:5251.1724 2:682.68481 
1 1:5164.6877 2:596.98246 
0.8950751319589126 1:5072.4306 2:491.99993 
1 1:5178.5402 2:632.59235 
1 1:5068.8769 2:522.87991 
0.6629618551417773 1:5222.5979 2:664.10861 
1 1:5249.7806 2:730.92728 
1 1:5258.2895 2:911.20514 
1 1:5187.8924 2:722.11001 
1 1:5186.5042 2:682.25307 
1 1:5259.5199 2:788.58327 
1 1:5299.9555 2:760.29639 
1 1:5309.3448 2:824.65718 
1 1:5140.7925 2:788.49249 
1 1:5136.0563 2:602.15999 
1 1:5244.4052 2:747.47883 
1 1:5148.038 2:718.89561 
1 1:5286.8608 2:843.71604 
1 1:5337.6569 2:859.96306 
1 1:5398.9963 2:1059.3946 
1 1:5452.735 2:1025.8792 
1 1:5438.1432 2:1042.4136 
1 1:5375.2248 2:1030.3461 
1 1:5398.4282 2:1009.5265 
1 1:5453.9335 2:1005.2261 
1 1:5493.2873 2:1054.4515 
1 1:5475.5677 2:1034.526 
1 1:5447.4371 2:1026.0734 
1 1:5431.7185 2:1011.1588 
1 1:5122.6447 2:627.21708 
1 1:4902.9949 2:395.02877 
1 1:4888.4919 2:504.38076 
1 1:4864.4858 2:323.546 
1 1:4736.9492 2:403.37465 
1 1:4991.9735 2:432.70667 
0.7236438401781617 1:4970.523 2:446.60491 
1 1:4994.0879 2:420.61124 
1 1:4903.749 2:447.42686 
1 1:5198.0162 2:695.32431 
1 1:5193.5084 2:659.27201 
0.8187285741691461 1:5159.6606 2:593.2128 
1 1:4880.5753 2:412.86431 
0.889782771912919 1:5254.8237 2:675.42337 
0.8297660672409221 1:5139.3144 2:588.5914 
0.5036545358046571 1:5199.2359 2:607.47228 
1 1:5117.6634 2:550.5875 
1 1:5149.8844 2:592.25934 
1 1:5220.2647 2:626.27102 
1 1:5183.7372 2:591.74466 
1 1:5256.5472 2:673.92014 
1 1:5283.0302 2:701.66761 
1 1:5285.3096 2:697.83167 
1 1:5306.6461 2:719.95754 
0.9734537478078203 1:5244.6015 2:684.53765 
1 1:5211.7479 2:661.11137 
1 1:5154.2711 2:586.2892 
0.7400440518404691 1:5121.2996 2:548.69887 
1 1:5186.6904 2:670.97972 
0.8634570204884315 1:5127.4263 2:586.02654 
1 1:5229.6115 2:660.40196 
0.9950739248852049 1:5192.7944 2:602.73704 
1 1:5144.1181 2:592.67681 
1 1:5038.8118 2:515.05195 
1 1:4947.6766 2:445.51236 
0.9957604813575517 1:5137.9091 2:557.87711 
1 1:5197.1529 2:683.37842 
1 1:5264.5131 2:734.02115 
0.541252451064407 1:5228.7714 2:651.11998 
1 1:5212.9369 2:652.95521 
1 1:5123.7683 2:672.13847 
1 1:5216.3281 2:643.85595 
0.6228741241395481 1:5069.721 2:488.8292 
1 1:5211.3286 2:674.53998 
0.9842696925345998 1:5204.9069 2:616.78949 
1 1:5277.9312 2:725.2649 
1 1:5163.4224 2:630.32789 
1 1:5246.1755 2:672.44175 
1 1:5288.8613 2:708.51962 
1 1:5346.0368 2:753.34435 
1 1:5350.8488 2:754.43466 
1 1:5395.2969 2:814.14822 
1 1:5393.9194 2:804.81993 
1 1:5428.8154 2:839.5192 
1 1:5324.2319 2:729.80726 
1 1:5378.7019 2:787.4047 
1 1:5327.3711 2:729.34837 
0.5581316045927081 1:5357.7247 2:761.39931 
1 1:5317.3382 2:738.65497 
1 1:5201.2436 2:610.24024 
1 1:5208.3703 2:626.10462 
1 1:4963.4715 2:417.28953 
1 1:4970.7506 2:412.70617 
1 1:4849.4289 2:284.61136 
0.6643562941833241 1:5031.3363 2:471.36971 
1 1:4875.5996 2:368.55562 
0.998905333406406 1:5094.9639 2:527.74526 
1 1:5099.8977 2:523.70113 
1 1:5027.3065 2:454.20799 
0.6591267392314136 1:5031.6624 2:472.43552 
1 1:5146.4543 2:553.11558 
0.846503953754931 1:5245.2455 2:658.3938 
1 1:5227.6837 2:666.5973 
0.9531218792917913 1:5140.9613 2:551.71641 
1 1:4932.0983 2:374.3774 
1 1:5065.5617 2:503.03654 
1 1:4961.7104 2:409.07359 
1 1:5038.1581 2:546.41766 
1 1:5104.4789 2:561.97077 
1 1:5212.2398 2:618.34003 
0.8560616626527726 1:5237.5562 2:651.61895 
1 1:5176.5791 2:593.32487 
1 1:5171.2503 2:596.96838 
1 1:5001.8112 2:497.47672 
0.9847752007921369 1:5056.3435 2:494.25589 
1 1:5059.6015 2:473.10643 
1 1:5009.8817 2:478.59386 
1 1:5082.5492 2:495.18908 
1 1:4907.6093 2:396.97568 
1 1:5094.8358 2:503.62968 
1 1:4956.277 2:450.71915 
0.9407712247373334 1:5045.5827 2:469.90282 
1 1:5159.2585 2:590.21611 
1 1:5067.4994 2:550.36018 
1 1:4940.7537 2:436.46998 
1 1:5154.1269 2:557.98208 
1 1:5085.499 2:561.07835 
1 1:5092.08 2:546.87205 
0.9788470922545129 1:5069.0463 2:492.51051 
1 1:5131.889 2:535.8564 
0.8357411899046568 1:5125.0418 2:541.31373 
0.6877117953867304 1:5228.2262 2:651.74661 
1 1:5057.722 2:486.49724 
1 1:4915.4833 2:354.63131 
1 1:4852.0957 2:490.73789 
0.6922437144060261 1:4912.2359 2:398.05865 
0.9311027532559053 1:4950.1773 2:396.88254 
1 1:4957.2168 2:364.23212 
0.8338949231107775 1:5114.1026 2:538.54015 
1 1:5094.6187 2:549.35989 
1 1:5033.1961 2:484.69898 
0.7741027054330062 1:5062.6756 2:490.77975 
1 1:4989.961 2:420.02377 
1 1:4935.9628 2:376.06047 
1 1:4943.9147 2:419.89179 
1 1:5073.7343 2:500.02472 
1 1:4936.8489 2:491.31508 
1 1:5000.4878 2:432.20105 
1 1:5093.7225 2:575.35686 
0.7339616114465659 1:5061.8929 2:515.59624 
1 1:5140.41 2:585.64792 
1 1:5034.793 2:676.23892 
1 1:4956.8693 2:372.48864 
1 1:5056.8069 2:498.78385 
1 1:5106.2638 2:589.0322 
1 1:5185.576 2:609.46828 
1 1:5081.5014 2:560.5635 
0.6236733661281537 1:5068.9243 2:488.72768 
1 1:4992.5311 2:511.49169 
0.640960070462149 1:5086.5195 2:526.09497 
0.9811431433235093 1:5160.5586 2:595.90616 
1 1:5351.4379 2:884.8303 
1 1:5384.6203 2:886.70664 
1 1:5420.1778 2:911.82786 
1 1:5228.7205 2:711.84501 
1 1:5259.0145 2:726.59274 
1 1:5420.5609 2:943.90617 
1 1:5430.4843 2:925.55047 
1 1:5334.7372 2:839.85072 
1 1:5385.0505 2:889.23657 
1 1:5448.8296 2:928.83217 
1 1:5222.5999 2:673.06997 
0.7237728237462914 1:5050.8717 2:468.28163 
1 1:5222.4501 2:652.26943 
0.737172137217827 1:5104.0718 2:514.74838 
1 1:5154.0622 2:608.47741 
1 1:5161.2691 2:604.01151 
0.9581721647487329 1:5123.3511 2:585.7799 
1 1:5155.3425 2:592.18221 
1 1:5152.1445 2:564.374 
1 1:5019.2256 2:454.59913 
1 1:5092.7656 2:553.74766 
1 1:5218.1636 2:667.53661 
0.9479350143312987 1:5230.9462 2:669.03568 
0.9429335895300075 1:5207.3651 2:656.33904 
0.9133038663595614 1:5123.6853 2:555.47907 
1 1:5042.391 2:514.21891 
1 1:5008.0266 2:464.44539 
1 1:5122.305 2:529.07231 
0.6268889041143585 1:5124.7078 2:552.65133 
0.8063107408047276 1:5145.7713 2:566.83629 
0.9589481450222498 1:5091.233 2:521.06096 
1 1:4856.0004 2:558.9183 
1 1:5138.3403 2:643.09334 
1 1:5114.895 2:656.16145 
1 1:5295.7057 2:717.47543 
0.738652449935741 1:5289.1321 2:703.23082 
0.9578619881215273 1:5173.5464 2:608.83366 
1 1:5116.189 2:563.58248 
0.5187878584494796 1:5133.039 2:544.88152 
0.7435602077252642 1:5271.484 2:678.00297 
1 1:5246.0196 2:655.40738 
1 1:5027.0582 2:479.32289 
1 1:5095.1254 2:542.98824 
1 1:5251.124 2:651.9052 
1 1:5117.2285 2:560.45953 
0.8737796467406762 1:4996.1236 2:424.2158 
1 1:4955.9908 2:396.51135 
0.9500649377503457 1:4949.5609 2:398.78725 
1 1:4870.9689 2:387.83031 
1 1:4911.4091 2:345.53621 
1 1:5014.3598 2:435.93525 
1 1:4925.8749 2:442.75847 
1 1:5067.3954 2:533.10016 
1 1:5152.5665 2:599.38086 
1 1:5011.8489 2:441.1088 
1 1:4985.5189 2:481.51514 
1 1:5025.1185 2:445.49628 
0.4955889719686637 1:5204.9088 2:636.95315 
1 1:5270.7432 2:727.45299 
1 1:5116.4089 2:653.36779 
1 1:5096.0217 2:614.54808 
0.6058124206743746 1:5099.761 2:510.30061 
0.8751614577995361 1:5243.9317 2:660.32838 
1 1:5304.0878 2:739.00202 
1 1:5226.6573 2:655.54033 
0.9059311487940783 1:5237.4868 2:659.90884 
1 1:5257.9774 2:712.30104 
0.7875827023218999 1:5198.1708 2:609.02055 
0.9583710932887597 1:5204.1974 2:641.93026 
1 1:5072.3748 2:512.25795 
0.7620020927674315 1:5250.2403 2:676.22106 
0.519590007936761 1:5204.6435 2:638.96055 
1 1:5285.3455 2:700.72309 
0.919099162898678 1:5250.4633 2:666.92705 
1 1:5181.044 2:586.53996 
0.8263136558101963 1:5054.1566 2:515.68266 
0.7399020888779367 1:5146.0626 2:558.49841 
0.9657853252397587 1:5219.3671 2:632.76447 
1 1:5136.2882 2:545.47242 
0.7001736478663014 1:5175.0258 2:587.00356 
1 1:5309.568 2:733.55981 
1 1:5481.5053 2:962.93922 
1 1:5436.9691 2:971.13334 
1 1:5367.1533 2:824.96355 
1 1:5426.7314 2:923.11082 
1 1:5416.3652 2:923.89655 
1 1:5434.6099 2:916.10463 
1 1:5423.8565 2:918.05157 
1 1:5410.5039 2:904.68836 
1 1:5382.1877 2:875.84854 
1 1:5426.4597 2:934.82662 
1 1:5033.2571 2:492.39781 
1 1:4919.8821 2:409.09348 
0.9896163710474561 1:5063.3101 2:520.77441 
0.9000636004768159 1:5165.164 2:609.70716 
0.7117743690961148 1:5153.9871 2:577.56346 
0.6754274245901374 1:5006.3847 2:430.25505 
1 1:5147.3174 2:604.96546 
1 1:5133.6172 2:558.16975 
0.8188956692668052 1:5078.4974 2:501.90664 
1 1:4955.3407 2:682.95639 
0.6943442018606016 1:5215.813 2:632.42576 
0.9906345395179811 1:5171.389 2:593.68477 
0.2674793360011608 1:5153.5313 2:578.60361 
0.9665877366797492 1:4885.3312 2:408.91718 
1 1:4977.1098 2:449.92596 
0.7779941730854102 1:5121.7383 2:550.1422 
1 1:5080.6527 2:519.59163 
1 1:5205.5729 2:650.30612 
1 1:5128.9437 2:573.16705 
1 1:5030.4077 2:464.63984 
1 1:4864.83 2:355.36126 
1 1:4874.9246 2:348.78888 
1 1:5140.4543 2:591.97994 
0.9558950118859242 1:5139.3586 2:595.96086 
0.8592702809162857 1:5145.0595 2:557.25288 
1 1:5335.0491 2:812.10318 
1 1:5328.1071 2:823.05024 
1 1:5339.9526 2:849.17399 
1 1:5323.042 2:811.00681 
1 1:5292.568 2:826.34877 
1 1:5315.8241 2:817.85748 
1 1:5255.1073 2:796.67328 
1 1:5352.6152 2:870.53684 
1 1:5359.0445 2:898.90101 
1 1:5309.5493 2:827.39274 
0.7014602259586633 1:5187.6204 2:619.84602 
1 1:5120.0661 2:543.27023 
0.6884355011615669 1:5117.1571 2:539.36386 
1 1:5182.3273 2:597.48068 
0.8395154114283495 1:5200.7531 2:608.03288 
0.9885424306739173 1:5174.1585 2:594.89633 
1 1:5164.0101 2:578.11057 
1 1:5079.3434 2:529.52247 
1 1:5203.6292 2:627.28938 
0.9968176339269217 1:5173.4917 2:581.60824 
0.6420129189097155 1:5141.525 2:553.50434 
1 1:5270.6213 2:691.54991 
1 1:5230.3167 2:649.1912 
1 1:5070.619 2:525.90072 
1 1:5081.8857 2:543.1674 
1 1:5163.7057 2:582.84497 
1 1:5079.833 2:494.61631 
0.8926889648530615 1:5164.323 2:611.3026 
0.851297465224909 1:5166.7487 2:591.0666 
1 1:5182.3105 2:605.84417 
1 1:4984.5082 2:457.99028 
1 1:4933.7308 2:425.38714 
1 1:5077.4993 2:491.31331 
1 1:4905.2226 2:390.96134 
0.7819619107381267 1:5139.4637 2:574.86124 
1 1:4956.9816 2:439.21114 
1 1:5100.1848 2:633.62943 
1 1:5254.9227 2:729.95896 
1 1:5229.3435 2:696.75011 
1 1:5198.7052 2:706.67253 
1 1:5172.0015 2:699.63072 
1 1:5199.4917 2:720.60619 
1 1:5176.307 2:675.66029 
1 1:5129.8281 2:621.86175 
1 1:5262.8624 2:767.27207 
1 1:5234.5426 2:734.51224 
1 1:5220.2306 2:688.21301 
0.9407530555830191 1:5177.2677 2:587.20842 
1 1:5193.1174 2:644.69504 
1 1:5221.0747 2:646.776 
1 1:5283.8318 2:712.01342 
0.8778783786549375 1:5205.3936 2:656.36565 
0.6742185631478324 1:5155.2345 2:583.17152 
0.8074850991057294 1:5175.1418 2:605.14273 
1 1:5124.005 2:648.52349 
1 1:5141.7958 2:633.97991 
0.9402130584579889 1:5208.7972 2:611.44154 
1 1:5139.3672 2:563.25687 
0.9009569214644323 1:4995.0751 2:448.49341 
1 1:4921.3699 2:378.36238 
0.8244094369294857 1:5187.1497 2:618.47002 
1 1:5082.8367 2:541.00795 
1 1:5074.117 2:555.77905 
1 1:5115.1014 2:556.34657 
0.5928148067204391 1:5201.6828 2:632.80476 
1 1:5176.2285 2:597.2241 
0.8580440771105032 1:5154.0399 2:570.44276 
1 1:4968.4259 2:589.80505 
1 1:4991.5815 2:539.26118 
1 1:5085.4194 2:507.38964 
1 1:5232.5645 2:653.03834 
0.8401859408420482 1:5316.1505 2:751.25171 
1 1:5260.0643 2:694.41258 
1 1:5230.9553 2:680.30198 
1 1:5340.5372 2:754.53614 
1 1:5200.373 2:615.15926 
1 1:5289.6755 2:719.82861 
0.8931379522883298 1:5189.8434 2:622.44122 
0.4606397715989946 1:5025.8798 2:450.42856 
1 1:5088.0085 2:557.7191 
0.9797159983960242 1:5269.5336 2:736.87452 
1 1:5035.0192 2:454.77758 
0.3094334720410293 1:5049.9008 2:470.07026 
0.874627115393657 1:5141.2519 2:595.3333 
0.9177410063992477 1:5036.0922 2:483.4667 
1 1:5165.8144 2:614.59692 
1 1:5222.9185 2:711.65284 
1 1:5106.4806 2:573.2505 
0.4151459502976547 1:5124.5132 2:553.26259 
1 1:4930.7773 2:401.73351 
1 1:5013.1449 2:430.62781 
1 1:5064.3727 2:498.07098 
1 1:5059.7061 2:494.24542 
1 1:4965.2539 2:428.64984 
1 1:5184.0486 2:617.15253 
1 1:5128.9477 2:539.33581 
0.7722645523781024 1:5165.3587 2:590.33039 
1 1:5101.1727 2:612.15165 
1 1:5105.6587 2:575.81894 
1 1:5043.7836 2:558.03178 
1 1:5145.6317 2:599.41649 
1 1:5055.5974 2:519.46298 
1 1:5013.9451 2:451.49065 
1 1:5093.9027 2:591.2692 
0.7734504270847791 1:5202.3126 2:631.81769 
0.9994029120424378 1:5063.3368 2:476.69425 
1 1:5070.901 2:482.89552 
0.710255179255235 1:5260.528 2:674.74787 
1 1:5216.323 2:621.15195 
1 1:5188.7046 2:600.83829 
0.2862865645927461 1:5174.9314 2:585.93064 
1 1:5139.7562 2:540.81362 
0.5783808933437392 1:5132.7472 2:544.79693 
0.622483945305226 1:5128.8873 2:554.9105 
0.8845736925806887 1:5173.1626 2:603.92559 
0.7891090750408791 1:5209.765 2:618.25573 
1 1:5251.8191 2:672.65318 
1 1:5251.9079 2:693.70667 
0.9482347671173046 1:5108.7188 2:542.56797 
0.6652291114921727 1:5103.8756 2:564.39816 
1 1:5071.3397 2:500.53597 
1 1:4845.7884 2:373.59186 
0.9978589170612568 1:5062.3512 2:522.81279 
0.848147618157294 1:5156.8161 2:565.77715 
1 1:4923.5832 2:488.11219 
0.5814379742075474 1:5146.3075 2:565.00084 
0.9479062970623512 1:5107.784 2:544.33849 
0.9967224502700619 1:5171.68 2:580.26711 
1 1:5022.6846 2:449.21062 
0.5458269909111884 1:5209.0523 2:659.31075 
1 1:5024.2608 2:440.24868 
1 1:4818.1894 2:463.40855 
1 1:5026.9264 2:469.28579 
0.9667478796978151 1:4970.3571 2:398.70829 
1 1:4907.8993 2:352.54579 
0.7124338254710073 1:5085.5062 2:526.4835 
1 1:5015.1105 2:476.01314 
1 1:4779.0637 2:420.33757 
0.724371287631921 1:4971.2476 2:447.56745 
0.9561561303313195 1:5089.7104 2:522.43655 
0.969896762133138 1:5143.5494 2:595.10394 
1 1:4972.0192 2:427.0322 
1 1:5142.7562 2:589.34001 
1 1:4976.0402 2:395.59237 
0.8535560578478514 1:5134.5321 2:577.82011 
1 1:5083.1149 2:488.74727 
1 1:5014.1463 2:467.437 
0.9871423473849154 1:5140.1462 2:558.02073 
0.7384485657121459 1:5197.4261 2:626.91013 
1 1:5052.4741 2:485.29124 
1 1:5030.5766 2:491.06697 
1 1:4924.4719 2:467.48673 
1 1:5061.3757 2:632.14724 
1 1:5146.3104 2:779.05813 
1 1:5097.5731 2:824.22283 
1 1:5012.995 2:635.68706 
1 1:5171.6105 2:683.63545 
1 1:5240.5052 2:758.48549 
1 1:5257.1012 2:779.43437 
1 1:4946.6546 2:476.1489 
1 1:5123.0424 2:573.71523 
1 1:5270.8041 2:798.85264 
0.7348370096425231 1:5035.0118 2:481.93257 
1 1:5123.8516 2:591.99949 
1 1:5042.134 2:461.70996 
0.9392697197059473 1:5036.9452 2:461.25754 
0.5882228015038569 1:5162.4102 2:580.65141 
0.9224335115391581 1:5144.292 2:568.09378 
1 1:5085.2838 2:491.63745 
1 1:5013.7068 2:481.89508 
1 1:5222.8676 2:641.0255 
1 1:5185.4121 2:594.45573 
1 1:5210.571 2:630.38902 
1 1:5158.9066 2:567.30721 
1 1:5082.0493 2:503.90309 
0.9402536774292296 1:5210.2918 2:612.72246 
0.8898144060580089 1:5218.5837 2:639.44498 
0.9239663716965748 1:5193.5933 2:604.79378 
0.9883446936213842 1:5077.7605 2:499.91427 
0.6607671140209536 1:5200.4255 2:634.62357 
0.9288269919368813 1:5232.9796 2:669.08661 
1 1:5037.0457 2:520.40432 
1 1:4948.9136 2:480.54469 
0.5396887327676364 1:5267.6688 2:676.14342 
0.9151888998367491 1:5141.4478 2:555.21887 
0.8282976085565171 1:5132.0598 2:548.55368 
0.5352748796427139 1:5208.9005 2:659.14103 
1 1:5278.6481 2:715.21956 
1 1:5093.5173 2:510.57769 
0.7929137254074007 1:5118.9067 2:562.49384 
0.5759347263082982 1:5118.1175 2:565.02305 
1 1:5070.8096 2:505.54102 
1 1:5147.6201 2:561.91921 
1 1:5054.8179 2:483.50482 
0.5879602434103709 1:5049.5765 2:468.60934 
1 1:5014.2339 2:423.79845 
0.592015074270366 1:5070.9688 2:492.71809 
1 1:5239.2393 2:665.82655 
1 1:5087.215 2:504.50485 
1 1:5191.2937 2:637.29376 
0.9373953826386316 1:5072.039 2:497.24069 
1 1:5023.3925 2:513.66477 
1 1:5056.3913 2:477.29903 
0.6662712155524821 1:4913.782 2:390.06162 
1 1:5103.5598 2:537.39855 
0.8382809385601561 1:5113.0879 2:541.0109 
0.9800292620248672 1:5269.1376 2:738.99292 
1 1:5246.937 2:705.92803 
0.8528077034247579 1:5238.1033 2:658.20196 
-0.9238293012307073 1:1530.3474 2:4160.5884 
-0.924400866371752 1:1540.9075 2:5329.488 
-0.9244066138191592 1:1504.6673 2:5517.3018 
-0.9244079803356138 1:2075.5599 2:5776.4614 
-0.9239337345897757 1:1866.0098 2:5316.4255 
-0.9239719470461587 1:1344.7818 2:5030.0106 
-0.9239721367911968 1:1915.4938 2:5752.3166 
-0.9238736250709176 1:1669.8685 2:5379.9783 
-0.9237889421929473 1:2729.1563 2:6841.0561 
-0.9241827356419667 1:4443.7364 2:8453.0808 
-0.9242763634252295 1:6409.768 2:10065.351 
-0.9243608020028881 1:2002.2933 2:6131.7993 
-0.9240612353717751 1:2626.6736 2:6607.7047 
-0.9243751741185218 1:3946.6288 2:7906.3533 
-0.9242763634252295 1:3471.9989 2:7206.8112 
-0.9242768314430017 1:2937.1155 2:6952.7575 
-0.9244300315612033 1:2318.9285 2:5523.4754 
-0.924296140948398 1:1925.4236 2:4571.2128 
-0.9237817399770281 1:2218.3957 2:5848.076 
-0.9240777878284954 1:4609.5658 2:7901.6421 
-0.9240781431574842 1:3601.9253 2:6984.6076 
-0.924289405159567 1:3635.1891 2:7313.1358 
-0.924351008990846 1:1821.1652 2:5377.8234 
-0.9243285006171396 1:2238.1498 2:5694.3619 
-0.9237798659824884 1:2259.4583 2:4793.3093 
-0.9242769627087497 1:2651.9654 2:3757.0047 
-0.9238559037034961 1:1993.0258 2:3967.5368 
-0.9239132454820022 1:2036.4601 2:4031.8708 
-0.9243741415234058 1:2415.9621 2:3741.4247 
-0.9239613592132631 1:1870.6605 2:3853.738 
-0.9237651294635708 1:2559.0863 2:4978.5695 
-0.9238713909021641 1:2263.5611 2:4273.0827 
-0.9240044922167703 1:2192.1529 2:4764.3105 
-0.9240068936286381 1:1870.6589 2:4919.3679 
-0.924293337529869 1:1736.0407 2:3828.4022 
-0.9243879295800814 1:3158.137 2:2476.7581 
-0.9239270831922 1:3928.2164 2:1231.0748 
-0.9239342806769639 1:4253.7816 2:813.24857 
-0.9244236814956983 1:3942.3784 2:1048.1265 
-0.9241390818843045 1:4073.2834 2:907.42301 
-0.9243402376875782 1:3619.1937 2:1099.1253 
-0.9242888164129403 1:3997.6233 2:1035.0572 
-0.9242948834432211 1:3535.2734 2:1208.0523 
-0.9239443932526765 1:3421.6718 2:1690.7362 
-0.9239502003418473 1:3654.7643 2:1296.1017 
-0.9244891930849822 1:3933.2818 2:1108.3047 
-0.9245039401393786 1:3301.0018 2:1713.0773 
-0.9247097914450741 1:2454.5126 2:2631.1581 
-0.9242938809383552 1:1578.2473 2:3552.0197 
-0.9243803821448443 1:1944.5258 2:4434.874 
-0.9243963926141645 1:1785.012 2:3993.4596 
-0.924366354913824 1:1940.1943 2:4555.8953 
-0.924409107975917 1:1546.2419 2:4073.6283 
-0.9241413957061271 1:1207.6008 2:4568.4004 
-0.9239791772232484 1:2025.3292 2:4317.0304 
-0.9237805583776382 1:1624.4727 2:4250.5392 
-0.9243639188607518 1:1692.5839 2:3747.9483 
-0.9243747735009291 1:2053.3642 2:3227.2766 
-0.923759095059827 1:2106.6531 2:3054.1607 
-0.924397760791861 1:3267.524 2:1886.3565 
-0.9239585155728895 1:4211.1154 2:873.49483 
-0.9240086660494762 1:3975.2543 2:1209.503 
-0.9239266979504669 1:4274.0871 2:690.45962 
-0.9243975712034949 1:4394.6157 2:461.40643 
-0.9242925255909381 1:3949.2379 2:932.25569 
-0.9239502100411241 1:3779.5385 2:1062.4253 
-0.9243459802078551 1:4165.9818 2:764.07238 
-0.924340146307383 1:4080.5153 2:806.38361 
-0.9238172230896262 1:3672.3609 2:1077.8945 
-0.923990893883887 1:3781.7848 2:905.54696 
-0.9243970926536348 1:2928.505 2:2475.3586 
-0.9238231025660035 1:2903.1835 2:2602.5951 
-0.9240145431881741 1:3045.145 2:2553.939 
-0.9239241592569165 1:3108.6338 2:2637.4609 
-0.9239391265220682 1:2533.3495 2:2919.6993 
-0.9244000247239157 1:3044.0097 2:2494.532 
-0.92436286423513 1:2968.4531 2:4281.2428 
-0.9240781431574842 1:3081.8467 2:2445.3572 
-0.9244234733251331 1:2706.9366 2:2964.4758 
-0.9238328664951951 1:2957.5636 2:2445.8641 
-0.9243973336120072 1:2763.567 2:2995.5736 
-0.9239805421155922 1:2247.6698 2:3406.6674 
-0.9238408784739649 1:2132.4965 2:5071.3218 
-0.9244088147489569 1:3207.7164 2:4969.6198 
-0.9243968404270675 1:3271.5329 2:5756.9372 
-0.9240482691124451 1:3193.8448 2:6869.9105 
-0.9240510082535982 1:2491.1912 2:5570.585 
-0.924176074282923 1:2298.115 2:5809.0854 
-0.9241857446787389 1:1615.5577 2:4228.522 
-0.9242779226058577 1:2878.2711 2:3124.062 
-0.9244245544079551 1:2786.6638 2:3274.1391 
-0.9243509706868844 1:2567.7375 2:2705.2442 
-0.924479544857488 1:2982.8826 2:2846.3552 
-0.9240038492019496 1:2721.9765 2:2495.6803 
-0.9240841802761679 1:2496.2128 2:2526.0014 
-0.9244079244775885 1:2386.8149 2:3065.2446 
-0.9245620700403815 1:2514.7917 2:2928.9332 
-0.9246343062894045 1:2260.596 2:3287.9269 
-0.9243515532459287 1:2541.2091 2:2900.7166 
-0.9242773156687787 1:2829.7172 2:2953.8213 
-0.9240163277116388 1:1943.9743 2:4305.3478 
-0.9241199300351314 1:3088.7383 2:3079.0917 
-0.9244945121004989 1:1519.8539 2:4073.8477 
-0.9242934794094144 1:2381.621 2:4219.9397 
-0.9243285006171396 1:2768.2439 2:5411.1796 
-0.9244053309495277 1:1474.3685 2:3579.5483 
-0.9242818369556525 1:3314.9082 2:6087.4902 
-0.9240778583560714 1:2746.2894 2:6136.6055 
-0.9240497828474852 1:3319.109 2:5245.5654 
-0.9240482691124451 1:3016.0742 2:4904.7203 
-0.9240018430433234 1:3984.9778 2:6946.0875 
-0.9243703448513496 1:3364.1969 2:6417.8857 
-0.9244191612861592 1:4134.5055 2:7145.2664 
-0.9242871344936904 1:3831.9332 2:6377.9744 
-0.9242929538113138 1:3218.9688 2:5498.0366 
-0.9243758104067152 1:3645.0013 2:5191.9257 
-0.9243224377667484 1:4806.7408 2:7560.9486 
-0.924395258933104 1:3706.2357 2:6685.8435 
-0.9243858284134179 1:2443.3714 2:4863.1466 
-0.924361374751161 1:1666.5603 2:4137.7583 
-0.9244858811094472 1:2697.3646 2:4865.8989 
-0.9244315918228632 1:1719.443 2:4199.758 
-0.9238395488533493 1:2291.0584 2:4138.5149 
-0.9240777878284954 1:2266.1567 2:4258.9068 
-0.9243657884220426 1:2156.6683 2:4290.8954 
-0.9241254171873453 1:2435.4699 2:3176.0246 
-0.9240217450711751 1:2523.9715 2:3494.7594 
-0.9240253160088323 1:4599.5915 2:6998.5811 
-0.9238145419290944 1:2469.5026 2:3025.6529 
-0.9242954508772374 1:3710.9162 2:5161.6061 
-0.9243747735009291 1:1427.4923 2:5144.3019 
-0.9243878118108662 1:3752.9124 2:7528.2431 
-0.9243692688700651 1:3004.8281 2:7020.1646 
-0.9242818369556525 1:3546.059 2:6853.9205 
-0.9245589719007763 1:3042.7181 2:6578.4906 
-0.924710260072157 1:3466.6488 2:7168.8553 
-0.9244069257739731 1:3879.759 2:7283.7188 
-0.9242924397953267 1:2289.9539 2:5193.5735 
-0.9243755139287552 1:4636.083 2:7712.3026 
-0.9239571249409296 1:1754.0253 2:4951.2747 
-0.9237600824365257 1:1812.6409 2:5151.969 
-0.9243668121214512 1:1392.0915 2:5065.0783 
-0.9244109037956169 1:3359.4447 2:7066.4823 
-0.9242834312077377 1:2855.3269 2:5886.6194 
-0.9238083000453172 1:4163.0427 2:7813.8531 
-0.9239805421155922 1:3994.562 2:7338.6379 
-0.9239444821188988 1:2534.0917 2:6573.1221 
-0.9239846710214137 1:3079.8082 2:5325.6262 
-0.9239885132308788 1:5613.7691 2:8268.7576 
-0.9240106973410462 1:5451.7578 2:9219.6765 
-0.9241299965352766 1:4708.9149 2:7467.5654 
-0.9241224687654456 1:1544.0382 2:5176.7996 
-0.9245009725902296 1:2803.6255 2:5809.2368 
-0.9242763634252295 1:1852.6926 2:4557.9794 
-0.9243363796296445 1:3752.9296 2:965.4831 
-0.9244019160760535 1:3652.4741 2:1286.8203 
-0.9239564334894684 1:3726.3481 2:1240.0609 
-0.924289405159567 1:3778.9791 2:1085.7676 
-0.9240044922167703 1:4071.9535 2:882.56046 
-0.9241827356419667 1:4094.8044 2:874.31433 
-0.9244053309495277 1:3978.0192 2:1174.6896 
-0.9243667062855074 1:3988.7781 2:1066.1606 
-0.9243677732336918 1:3970.1461 2:1166.401 
-0.9247131250744153 1:3819.8951 2:1206.9046 
-0.9244892525789599 1:3466.6301 2:1253.0447 
-0.9245027884540989 1:2856.5726 2:2124.6531 
-0.924719959573712 1:3164.4653 2:1686.7165 
-0.9244440112207065 1:3068.5655 2:2502.718 
-0.9239721367911968 1:3011.9855 2:1738.3867 
-0.923980732695589 1:2943.4717 2:2005.7234 
-0.9239545101808158 1:2948.5338 2:2884.1758 
-0.8823099253267331 1:3186.0719 2:1985.6367 
-0.9243348515895148 1:3379.7346 2:2238.0235 
-0.9239443932526765 1:3073.4374 2:2609.0393 
-0.9244066138191592 1:2901.7715 2:2511.9285 
-0.9241622178813168 1:2814.2312 2:2436.6186 
-0.9243678131299553 1:3200.5874 2:1858.1316 
-0.9244045729624522 1:3510.2246 2:1509.9586 
-0.9244093661314903 1:4522.6455 2:668.37623 
-0.923759095059827 1:4579.4665 2:384.7933 
-0.9241337735279114 1:4294.0439 2:658.7817 
-0.9241827356419667 1:4088.2184 2:1673.0867 
-0.9242895265068053 1:4446.0093 2:451.07472 
-0.924287213192538 1:4173.9498 2:720.27051 
-0.9243268080300915 1:4176.9471 2:871.15548 
-0.9243971402231592 1:4264.5812 2:844.64556 
-0.9246811647077693 1:4035.2625 2:1025.859 
-0.9244047268149537 1:3919.9265 2:1209.5507 
-0.9247203878243092 1:9114.284 2:12303.12 
-0.9243266640644693 1:6341.0042 2:10286.945 
-0.9243224377667484 1:6807.5428 2:10858.682 
-0.9243608603624772 1:5232.9145 2:8625.471 
-0.9244000020565442 1:3577.4994 2:7747.231 
-0.9243994558287383 1:3621.0011 2:7328.3061 
-0.9244468111678428 1:3383.3378 2:7130.5086 
-0.9243971971320011 1:2928.8617 2:5549.4576 
-0.9244087966843511 1:3214.066 2:6985.1266 
-0.9244000247239157 1:4977.7121 2:8954.0205 
-0.9243197996318959 1:3899.2563 2:8141.8274 
-0.9237730752693456 1:3005.3096 2:7089.4101 
-0.9237889421929473 1:3372.5398 2:6983.7096 
-0.9238408784739649 1:2440.9232 2:3077.0382 
-0.9239337345897757 1:3749.0724 2:1148.2378 
-0.9240091651530857 1:3723.8728 2:1011.5854 
-0.9239955708192942 1:3407.9098 2:1360.809 
-0.9240808435293797 1:3438.2642 2:1306.8092 
-0.9239703564180621 1:3398.7369 2:1288.1842 
-0.9239829594137814 1:3669.5722 2:1107.2103 
-0.923993847575985 1:3617.764 2:1136.6867 
-0.9237013702108707 1:3847.4459 2:898.53157 
-0.924020737250877 1:3843.2631 2:952.40899 
-0.9241067707879922 1:3972.5075 2:941.65602 
-0.9242125284078072 1:2550.3024 2:5552.5648 
-0.9242757091097877 1:2237.5829 2:5583.8178 
-0.9244340358259581 1:2198.7709 2:5098.8479 
-0.9243396900610907 1:2228.4419 2:6406.5426 
-0.924340146307383 1:1978.7006 2:5710.0237 
-0.9247574706651009 1:2924.2938 2:5998.1649 
-0.9247284627047723 1:1513.2841 2:4704.0557 
-0.9246857016971892 1:1207.7227 2:5494.4 
-0.9247589269865812 1:1948.4869 2:5761.1787 
-0.9247383535117477 1:2341.7915 2:5205.6435 
-0.9247130031083878 1:3169.467 2:6239.8052 
-0.9246812160837444 1:3072.6464 2:6636.6858 
-0.9242948834432211 1:1574.8061 2:4163.9353 
-0.9243208409407482 1:3629.6867 2:1707.9628 
-0.9243192718377903 1:3958.0054 2:1357.8504 
-0.9243381165091752 1:3190.3052 2:2534.583 
-0.9243375748745133 1:3795.1534 2:1388.3332 
-0.9243620389458338 1:2623.5789 2:2577.5005 
-0.924366481661281 1:2838.3936 2:1830.6254 
-0.9243702865230997 1:3347.8113 2:1981.3289 
-0.9243741415234058 1:3518.9029 2:1653.4568 
-0.9243975712034949 1:3594.1552 2:1342.8406 
-0.9243953312561132 1:4358.635 2:847.58467 
-0.9242014578982273 1:3851.3554 2:899.76146 
-0.9243995016943688 1:4036.6088 2:767.27019 
-0.9244000016395064 1:3879.4074 2:998.73889 
-0.9244075653193669 1:4016.0537 2:724.15295 
-0.9237771313827381 1:3541.08 2:1656.8467 
-0.9244496158337903 1:3504.3898 2:1797.8057 
-0.924448092256424 1:3866.7115 2:879.81341 
-0.924451878554165 1:3933.4022 2:1094.4416 
-0.9243072999042075 1:3487.3264 2:1559.59 
-0.9242948484500741 1:3454.6558 2:1324.4753 
-0.9243497337297248 1:3791.3075 2:1045.0688 
-0.9243974620829887 1:4063.5635 2:588.39891 
-0.9243506534696095 1:4106.9615 2:603.56313 
-0.9243349547769789 1:3278.0423 2:1434.3827 
-0.9240781431574842 1:3320.0901 2:1530.5836 
-0.9240718079345626 1:3197.3129 2:1845.8948 
-0.9240779459404058 1:3197.5232 2:1802.6737 
-0.9240774966349068 1:3000.4149 2:2999.5359 
-0.9239544408273844 1:3161.5802 2:2241.9508 
-0.9239294841874046 1:3395.0628 2:1506.2478 
-0.9239644788476419 1:2935.5108 2:2794.2364 
-0.9238419699407632 1:3075.067 2:1659.5897 
-0.9238340214065733 1:3200.3842 2:2698.2695 
-0.9242763634252295 1:3258.6288 2:1485.3822 
-0.923779124521783 1:3275.1987 2:1733.6085 
-0.9238735684739277 1:3194.7751 2:1593.3933 
-0.9238738822426988 1:3300.2794 2:1727.2577 
-0.9243275100711849 1:2937.5185 2:3077.4526 
-0.9243378141058207 1:2859.3545 2:2018.7117 
-0.9243998420355897 1:2936.1412 2:2180.2723 
-0.9242934794094144 1:3311.6885 2:1674.7242 
-0.9244075653193669 1:2958.7679 2:1905.3836 
-0.9244514163693422 1:3003.6925 2:1893.6966 
-0.9240780525621399 1:2984.0958 2:1868.3404 
-0.9242747242956129 1:3294.3785 2:1406.8793 
-0.924293337529869 1:2956.5453 2:1890.5803 
-0.9244090224482199 1:2551.5325 2:4556.6678 
-0.9244285112570234 1:1489.5636 2:3692.6274 
-0.9244044609332444 1:1959.0097 2:3375.8464 
-0.9244080504632874 1:2221.0424 2:3032.1256 
-0.9243219009333964 1:2324.0857 2:3230.4931 
-0.9243612322484376 1:1707.6847 2:3577.7379 
-0.9243255952785665 1:3250.1585 2:5699.6579 
-0.9243260709084249 1:2363.2986 2:3028.2091 
-0.9244087803071993 1:2205.0853 2:3123.4958 
-0.924299466697343 1:3035.7444 2:2116.4876 
-0.9238121688870797 1:2590.8378 2:2336.6883 
-0.9237817399770281 1:2673.1928 2:2763.9327 
-0.9243126043925591 1:2666.3253 2:4348.5256 
-0.9240397749817716 1:2263.4881 2:3744.9965 
-0.9241199300351314 1:1729.9418 2:3699.5531 
-0.9247586830944295 1:1619.7104 2:4383.5893 
-0.9243739735558418 1:1690.659 2:4376.9755 
-0.9244497666831616 1:2057.3602 2:4344.8206 
-0.9238381825210829 1:1716.968 2:3789.0231 
-0.9237770786258253 1:1527.7488 2:3408.829 
-0.9243703448513496 1:1140.7818 2:4488.3573 
-0.9243285006171396 1:1313.8668 2:4847.4891 
-0.9237817399770281 1:1320.0267 2:3884.7777 
-0.9244550292747404 1:1196.4908 2:4075.3138 
-0.9243404465192551 1:1048.9785 2:4134.6385 
-0.9244341125591847 1:2742.9566 2:2842.3092 
-0.9243187080377486 1:2980.21 2:2826.1232 
-0.923845553292328 1:2115.8789 2:3042.7344 
-0.9239314876518326 1:2872.8829 2:2222.3856 
-0.9237798659824884 1:2697.9511 2:3001.0678 
-0.9240442348678153 1:3636.6951 2:2074.0018 
-0.9243157935035629 1:3220.1032 2:1998.4831 
-0.9242706366615576 1:2891.8243 2:2804.0527 
-0.9241709083922824 1:2792.8257 2:2409.1111 
-0.9243126043925591 1:3573.7863 2:1540.5859 
-0.9246291960522117 1:2912.3975 2:2550.6939 
-0.9245589719007763 1:2203.791 2:5742.663 
-0.9244181821527773 1:3018.5106 2:6030.6635 
-0.9243387257955143 1:3501.3378 2:7028.9279 
-0.924344436720242 1:2536.5405 2:6424.0352 
-0.9243519219023444 1:2385.882 2:5992.6969 
-0.9241712175722941 1:2768.1287 2:5808.5479 
-0.9243363796296445 1:2437.8743 2:6639.1673 
-0.9243285006171396 1:4810.3501 2:8601.1497 
-0.9244370805008215 1:2983.4274 2:6836.5416 
-0.9243509706868844 1:2505.9464 2:6045.9142 
-0.9243072999042075 1:4533.3763 2:8430.7598 
-0.9243420706122417 1:1593.4805 2:5455.6694 
-0.9242818369556525 1:2763.2038 2:6924.8516 
-0.9243680679802871 1:3676.4163 2:7642.7786 
-0.9238324369754068 1:3620.4742 2:7429.4628 
-0.9244320702639659 1:2829.8091 2:6483.3691 
-0.9247363445749314 1:5703.3431 2:9255.1926 
-0.9242119132762607 1:3000.9207 2:6539.1457 
-0.9237771314117532 1:2737.9366 2:5220.1152 
-0.9243835816674218 1:2560.4529 2:5777.8467 
-0.9242950520875127 1:4188.3592 2:7328.5478 
-0.9241390818845361 1:2722.7506 2:4670.6638 
-0.9242809387711117 1:2275.4413 2:4774.1736 
-0.9244152699345805 1:3067.4339 2:7131.848 
-0.9244146201470598 1:2582.4325 2:2899.5817 
-0.9240287235761155 1:4038.5216 2:1021.0853 
-0.9243348960935018 1:3978.7343 2:1104.7459 
-0.924176074282923 1:3672.6665 2:1634.675 
-0.9237986041184405 1:3691.9037 2:1532.4469 
-0.9237846255311333 1:3661.1735 2:1707.573 
-0.9243804295720657 1:3649.5192 2:1647.0792 
-0.9243613764440399 1:3242.0921 2:2100.3983 
-0.9240781431574842 1:3201.5711 2:1821.0389 
-0.9242871344936904 1:3098.1343 2:1810.6307 
-0.9242087810002758 1:2895.2546 2:2067.0069 
-0.9243974997658151 1:2972.1823 2:2464.8745 
-0.9243887189476004 1:1541.5956 2:4177.3384 
-0.9241797033893766 1:4095.9121 2:7177.0859 
-0.9240612353717751 1:3273.5951 2:6353.2842 
-0.9240007520002187 1:2301.459 2:4728.6955 
-0.9242611200098415 1:2315.1398 2:5200.7555 
-0.924409107975917 1:2075.9581 2:5331.9565 
-0.9244155035705075 1:2938.661 2:4777.2374 
-0.9241358495741963 1:2314.2096 2:4588.8471 
-0.9240791596124347 1:1573.752 2:5391.3865 
-0.924079491763157 1:1928.452 2:4489.3595 
-0.9240482691124451 1:1679.6005 2:5081.8185 
-0.9240783105363324 1:2464.5404 2:4402.9626 
-0.9239728686648379 1:4150.249 2:5532.4861 
-0.9240512303310549 1:3130.2577 2:2079.6009 
-0.92390974858228 1:3380.5152 2:1499.7694 
-0.9238419699407632 1:2341.8622 2:2845.8119 
-0.9238396571750898 1:2198.4687 2:2666.3661 
-0.9238347501421056 1:1718.5514 2:3920.8314 
-0.9238172656623534 1:2335.5182 2:3009.738 
-0.9237817127229009 1:1462.9338 2:4244.7127 
-0.9242941209070106 1:1794.0337 2:4047.5547 
-0.9243740591420102 1:2941.3362 2:2859.6507 
-0.9243375748745133 1:2034.5874 2:3612.0138 
-0.9243261722309395 1:2430.0304 2:3157.248 
-0.9243302566047116 1:4297.5209 2:940.53166 
-0.9243644664770481 1:4464.8417 2:620.44534 
-0.9243741355750905 1:4308.0565 2:769.04192 
-0.9244485816346408 1:4447.1528 2:797.19322 
-0.9244005062671946 1:4238.0541 2:658.22856 
-0.9244315918228632 1:3992.1878 2:1112.1021 
-0.9244494189127348 1:4186.3573 2:1052.3825 
-0.9241188565534635 1:3680.3858 2:1271.7224 
-0.9244215597534006 1:3918.8188 2:963.12305 
-0.9244000020565442 1:4113.075 2:801.76661 
-0.9242769627087498 1:4089.6248 2:843.0801 
-0.9242668214682989 1:3103.2755 2:2575.4675 
-0.9242930078309959 1:2451.6924 2:3587.3405 
-0.9237889421929473 1:2137.4716 2:4312.2701 
-0.9237848901025907 1:2116.3196 2:3834.4589 
-0.9237786444842124 1:2193.6103 2:3630.3236 
-0.9238349197288807 1:2225.6068 2:4535.2649 
-0.9238417870256939 1:2328.896 2:4609.805 
-0.9239993763772096 1:1848.2875 2:4048.6056 
-0.9240323733722854 1:1787.0502 2:3534.094 
-0.9241425782472225 1:1988.403 2:4151.2775 
-0.9242272469349938 1:1843.0612 2:4186.097 
-0.9241824564509225 1:2505.3916 2:5036.0903 
-0.9246327540353545 1:5054.1548 2:8777.9682 
-0.9245039997151243 1:1842.0318 2:4734.5738 
-0.9239089698020437 1:1608.1837 2:4605.7662 
-0.9247098300204912 1:1740.0103 2:4070.9776 
-0.9247516794545559 1:2204.3796 2:3975.2582 
-0.9247269877271134 1:2197.0961 2:3804.2373 
-0.9242942801547929 1:1674.1627 2:3988.9001 
-0.9242955196604786 1:1799.9949 2:4041.3793 
-0.9242941209070108 1:1838.9503 2:3981.1255 
-0.9243197996318959 1:3371.4744 2:6590.1707 
-0.9243302566047116 1:2111.3522 2:4547.689 
-0.9243739772448559 1:4102.6393 2:7147.9582 
-0.9243982422130419 1:1764.493 2:5003.2011 
-0.9244083521817955 1:1914.2052 2:5413.9811 
-0.9244080703789233 1:2281.8771 2:6317.1833 
-0.9244415957059781 1:2565.2208 2:6153.8806 
-0.9244480922564241 1:1937.4016 2:4645.9646 
-0.9244182632344683 1:2583.6277 2:5857.6328 
-0.9242879356079396 1:1979.9672 2:5408.8121 
-0.9243860755598324 1:6915.2872 2:9883.295 
-0.9243348515895148 1:2278.1477 2:5913.7146 
-0.9240930962547073 1:2785.4844 2:6535.8035 
-0.9241123173444158 1:2219.7085 2:5733.9437 
-0.9240789000546089 1:2365.1874 2:5370.4696 
-0.9240777878284954 1:3377.7102 2:5573.7592 
-0.9239728686648379 1:3640.5271 2:1436.572 
-0.9239891779520202 1:2698.3188 2:2256.5105 
-0.923841969952781 1:2836.656 2:2015.2848 
-0.924381737926451 1:3311.7845 2:2103.3992 
-0.9243814039237561 1:3278.4364 2:1610.5324 
-0.9242954508772374 1:3168.948 2:1860.4146 
-0.9242936472577702 1:3231.276 2:1545.041 
-0.923960780160295 1:3665.89 2:1280.762 
-0.9242758603742918 1:3684.3429 2:1184.4578 
-0.9239502003418473 1:3383.2978 2:1763.1532 
-0.9239846710214137 1:2492.8973 2:3979.9995 
-0.9237816223325831 1:2055.4378 2:5297.0776 
-0.9238406521664622 1:2267.4271 2:5847.0234 
-0.9241414559674941 1:2820.4207 2:6895.6971 
-0.9243970926536348 1:2668.8294 2:6700.6573 
-0.924351008990846 1:2811.8738 2:6548.9437 
-0.9244132087143693 1:2808.0555 2:7083.0588 
-0.9247370825677386 1:3607.5644 2:7095.6586 
-0.9242773156687787 1:4975.8817 2:8743.8276 
-0.9247502477855881 1:6707.9567 2:10125.71 
-0.9244494512759711 1:3860.5078 2:8331.4346 
-0.9244315918228632 1:3505.1872 2:7619.0521 
-0.924401309899791 1:3213.8452 2:6905.7128 
-0.9244193521696384 1:2905.9228 2:3463.2974 
-0.9244550292747404 1:2992.2349 2:1806.2237 
-0.9242023088820879 1:3192.2001 2:1611.7421 
-0.9242924397969707 1:3468.8823 2:1321.5763 
-0.9240182349551274 1:3462.3396 2:1262.113 
-0.9238406521664622 1:3091.3658 2:1802.6002 
-0.924122467431908 1:3392.0462 2:1519.6107 
-0.9237599410623097 1:3399.0662 2:1352.3164 
-0.9243944106207702 1:3184.7959 2:1500.2706 
-0.9243399145344833 1:3268.7834 2:1415.9379 
-0.9244285112570234 1:3227.4228 2:1471.957 
-0.9243708607057295 1:3326.9467 2:1492.4135 
-0.9243675127310393 1:4608.1529 2:521.90562 
-0.9243975712034949 1:4704.4927 2:485.99443 
-0.9243962888244394 1:4562.1835 2:308.95445 
-0.9243959238597366 1:4376.8234 2:590.67333 
-0.9242940162887892 1:4082.1523 2:854.85056 
-0.9242943123239296 1:4248.6386 2:575.27428 
-0.9242955196604786 1:4137.8648 2:851.9709 
-0.9237616535406145 1:4262.8115 2:811.50275 
-0.8290990294012774 1:4125.6293 2:719.63723 
-0.9240403098961549 1:4274.1811 2:1092.7887 
-0.9237817399770281 1:3925.8596 2:983.91302 
-0.9237897601782612 1:3689.2938 2:1055.4935 
-0.9238142209774114 1:3507.002 2:1309.0569 
-0.9242463638158752 1:3653.2941 2:1210.7366 
-0.9238396983275473 1:3662.0509 2:1418.0774 
-0.9238381610756659 1:3220.0934 2:1740.3345 
-0.9238172230896262 1:3290.98 2:2463.641 
-0.9238413167263669 1:3217.5137 2:2156.2368 
-0.9239046526668899 1:3350.2628 2:2009.345 
-0.9240007520002187 1:3114.6022 2:2382.59 
-0.9241390816996841 1:3308.0622 2:2030.9211 
-0.8829565351078086 1:3187.6628 2:1983.7444 
-0.9239504622353224 1:3248.5121 2:2315.2431 
-0.9239726509741678 1:1475.9176 2:4579.2626 
-0.9240044922167703 1:1268.1626 2:4447.1621 
-0.9240515864105234 1:772.28275 2:4675.9813 
-0.9240278825650018 1:1708.3505 2:5932.9593 
-0.9240075439641754 1:1141.1871 2:5315.6462 
-0.924048237288325 1:1758.888 2:5094.1298 
-0.9240783105363324 1:960.25128 2:5078.8417 
-0.924078211164877 1:3701.3282 2:7362.2238 
-0.9241458847855403 1:2326.0482 2:6479.3754 
-0.9241358495741963 1:1983.0531 2:4713.6272 
-0.9241283906394642 1:2262.7752 2:3372.5771 
-0.924183560937095 1:2294.3918 2:4130.17 
-0.9241797033893766 1:1710.8627 2:3854.3269 
-0.924234623120989 1:2669.958 2:2840.9209 
-0.9242843135659629 1:2106.3968 2:3291.5926 
-0.9242871344936904 1:1389.6629 2:3850.5971 
-0.9244193947888966 1:2892.559 2:2482.916 
-0.9243481932034308 1:2221.1954 2:4187.6257 
-0.9243355770499644 1:2575.2845 2:3376.0594 
-0.9244105233306461 1:2506.4529 2:2920.9348 
-0.9243971402231592 1:2681.7034 2:4674.6874 
-0.924299466697343 1:2818.8652 2:5048.2974 
-0.9243508671451415 1:2333.0578 2:2990.7729 
-0.9243039963376753 1:1977.7899 2:3390.046 
-0.9243268080300915 1:3174.5282 2:2071.0722 
-0.9243940428139245 1:4324.1591 2:673.29629 
-0.9243897217373861 1:4401.6508 2:539.48775 
-0.9244485816346408 1:4120.9875 2:684.34123 
-0.924400866371752 1:4243.2047 2:551.10421 
-0.9244029972394318 1:4032.9976 2:938.08099 
-0.9238483434918495 1:3817.7212 2:1019.8682 
-0.8285632616804302 1:4127.6802 2:719.29923 
-0.9244027694873223 1:3799.2304 2:1418.4091 
-0.9244066138191592 1:4410.8764 2:333.4678 
-0.9244045729624522 1:4349.7366 2:432.99074 
-0.9243968404270675 1:2068.7739 2:3522.8407 
-0.9244088147489569 1:2556.9678 2:6467.6608 
-0.9243945912535092 1:3234.1756 2:6172.8717 
-0.9243835816674218 1:2070.2082 2:4481.1777 
-0.9243878118108662 1:2576.3839 2:5114.7943 
-0.9243846985703195 1:2222.5371 2:5380.8338 
-0.9243755139287552 1:1343.7833 2:4316.0839 
-0.9243739772448559 1:2753.453 2:5648.9423 
-0.9243703448513496 1:2330.8923 2:5326.0043 
-0.9243624166668997 1:2104.3999 2:4780.7978 
-0.9243302566047116 1:1869.465 2:3983.6572 
-0.9243285006171396 1:4807.9713 2:7744.7185 
-0.9242957481642652 1:2011.0988 2:3019.6397 
-0.924293409813763 1:3862.765 2:1325.0576 
-0.9242930078309959 1:3464.0653 2:1540.9052 
-0.9242934859783285 1:3601.6719 2:1539.6777 
-0.9242955196604786 1:3519.4327 2:1739.8513 
-0.9242953316104809 1:3304.6199 2:1937.1897 
-0.9242940160058567 1:3125.924 2:2165.8124 
-0.9242943123239296 1:3127.061 2:2193.3555 
-0.9247378334238873 1:3441.8437 2:1987.7232 
-0.9247116747993475 1:2895.7177 2:2383.4425 
-0.9247098300204912 1:2971.9167 2:2252.7367 
-0.9247097914450741 1:3249.3261 2:2056.8027 
-0.924719959573712 1:2085.9166 2:2863.7344 
-0.9246327540353545 1:2440.0866 2:3360.5914 
-0.9245035774055341 1:2344.8973 2:3258.3154 
-0.9245039401393786 1:2031.6751 2:3327.2716 
-0.9245027884540989 1:2587.0125 2:2818.995 
-0.9244858811094472 1:3215.1317 2:1687.0824 
-0.9244953973761559 1:2535.3361 2:3427.8725 
-0.9244701884145979 1:2788.1755 2:2775.0924 
-0.9241651444657912 1:2730.8647 2:2854.2534 
-0.9241264466349276 1:2559.3186 2:2859.3887 
-0.9241318086431267 1:2709.0988 2:3666.3273 
-0.9240265048692911 1:2871.3674 2:2726.7224 
-0.9240217450711751 1:3050.9121 2:6077.5183 
-0.9240377046775968 1:3111.766 2:6717.3908 
-0.9240253160088323 1:6116.2446 2:9440.1606 
-0.9239705248376696 1:2802.7142 2:5901.5775 
-0.9239325127253424 1:4108.7451 2:7220.7585 
-0.9239491620556258 1:3504.0488 2:6964.9118 
-0.923960780160295 1:3439.3019 2:6870.4297 
-0.9239545101808158 1:4207.1458 2:7164.4518 
-0.9239362874401086 1:3618.2194 2:7034.532 
-0.9239993763772096 1:4933.0949 2:8624.9946 
-0.9239401547891199 1:3537.2686 2:5511.4488 
-0.9239443932526765 1:4104.5564 2:7422.9418 
-0.9239475152231529 1:2949.1853 2:5503.9332 
-0.9238387132477255 1:1573.0236 2:3436.914 
-0.9238145419290944 1:2519.2395 2:4638.2915 
-0.9242654019556076 1:2736.8448 2:2622.7263 
-0.9243224377667484 1:2643.2049 2:2295.9098 
-0.9242954508772374 1:2731.0244 2:2397.9612 
-0.9243211385759234 1:2572.2595 2:2829.2749 
-0.9238056220543924 1:2657.9366 2:4071.6359 
-0.9242930078309959 1:2321.9578 2:2578.2283 
-0.9242769627087497 1:2690.5861 2:2376.1872 
-0.9243194014015528 1:2922.2041 2:4697.0173 
-0.9244027694873223 1:1782.7032 2:3655.2084 
-0.9244066138191592 1:2355.3819 2:4679.2352 
-0.9243624166668997 1:2638.4049 2:6699.8299 
-0.9243612322484376 1:2818.6317 2:5935.0169 
-0.9243459825320576 1:2960.2404 2:6096.7842 
-0.9243551845760678 1:2828.3624 2:5031.5976 
-0.9244069257739731 1:3675.0665 2:6641.5653 
-0.9243968404270675 1:7625.8882 2:10309.057 
-0.9243995016943688 1:2935.9069 2:6461.7943 
-0.9243667062855074 1:2285.5333 2:6238.7737 
-0.9243454137690956 1:2196.0586 2:5093.1589 
-0.9243302566047116 1:4115.4667 2:7708.9945 
-0.9239077227449967 1:1750.5786 2:4942.489 
-0.9241390818845361 1:2334.5251 2:4253.6738 
-0.9241390813516681 1:2341.182 2:2733.4699 
-0.9244370805008215 1:2640.2056 2:3347.5683 
-0.9244236814956983 1:1723.8718 2:4333.7558 
-0.9244234733251331 1:3046.5932 2:2751.9921 
-0.9247312333096499 1:1804.5355 2:4078.028 
-0.9246343062894045 1:3362.5991 2:2279.9255 
-0.9245620700403815 1:2775.1915 2:2356.945 
-0.9245077860431895 1:2301.2378 2:3671.0606 
-0.9245077856431146 1:3215.2622 2:1892.0682 
-0.9243013770120386 1:3147.3356 2:1900.1905 
-0.924167213431573 1:2926.1097 2:1925.456 
-0.9241011914187088 1:4201.8258 2:632.65663 
-0.9239526267848183 1:4095.6538 2:602.75163 
-0.9239342806769639 1:4078.2881 2:668.71296 
-0.9239342807517161 1:3898.4465 2:1233.4267 
-0.9239270831922 1:4250.5834 2:460.58392 
-0.9239270832162206 1:3690.2662 2:1896.6154 
-0.9237880387093403 1:4175.7301 2:483.09191 
-0.9237869309308929 1:4029.1327 2:791.87361 
-0.9243741415234058 1:3493.9165 2:1302.6956 
-0.9243848948663854 1:3569.4486 2:1214.2112 
-0.9244003190974291 1:3083.4907 2:1980.4221 
-0.9242924397953267 1:2378.2793 2:3195.5893 
-0.9242924397969707 1:2657.8167 2:2868.9313 
-0.9242782976429337 1:2504.1161 2:2735.7582 
-0.9240841802761679 1:1755.8431 2:3351.8593 
-0.9240068936286381 1:2530.4958 2:3093.4955 
-0.9242723150360586 1:2711.0748 2:2241.492 
-0.9240018430433234 1:2240.5673 2:3078.4822 
-0.9240186207435498 1:2617.9425 2:2801.4814 
-0.9240044922167703 1:2896.9895 2:3058.4552 
-0.9240162197828379 1:2853.3616 2:2247.894 
-0.9239980918497359 1:2261.5286 2:2976.608 
-0.9239203283029623 1:2853.7071 2:3219.122 
-0.9238697218353433 1:3139.1466 2:1577.9356 
-0.9238735684739277 1:2753.7014 2:2048.8013 
-0.9238738822426988 1:2824.5339 2:3299.6098 
-0.9238396983275473 1:2003.2659 2:3991.4439 
-0.9237897601859184 1:2263.2065 2:2883.6262 
-0.9237897601782612 1:2547.4527 2:2653.9593 
-0.9237616535406145 1:2752.7635 2:2371.6049 
-0.9242706366450338 1:3042.6808 2:2045.8806 
-0.9237616535420263 1:2721.315 2:2182.2133 
-0.9243201768131336 1:2826.2263 2:1993.8905 
-0.9243753483784349 1:3145.1629 2:1700.5624 
-0.9243739772448559 1:2484.8504 2:3599.5235 
-0.9244025325998142 1:2705.821 2:2493.1298 
-0.9243975712034949 1:2013.1576 2:3797.3746 
-0.9244236814956983 1:2696.0976 2:2747.4734 
-0.9244545810133439 1:3234.3268 2:2194.1178 
-0.9244515219804568 1:2407.7678 2:3315.3654 
-0.9244053309495277 1:2292.0445 2:3674.3078 
-0.9243519219023444 1:3507.0259 2:2022.663 
-0.9243404465192551 1:2650.4227 2:2436.0845 
-0.9243451511261395 1:3262.865 2:2004.6212 
-0.9243176004712812 1:2516.606 2:3089.3342 
-0.9239923758768895 1:2792.4759 2:2120.0826 
-0.9239590870048876 1:2930.2259 2:2160.8717 
-0.9239583340018418 1:4058.3405 2:1355.8875 
-0.9240284573359464 1:3898.0115 2:919.46839 
-0.9241651444657912 1:3400.2061 2:1606.6589 
-0.9243396900610907 1:3421.6539 2:1448.8542 
-0.9244624257865278 1:3716.0478 2:1084.4926 
-0.9243378141058207 1:3531.8021 2:2103.0618 
-0.9243376076789169 1:3967.3443 2:788.86433 
-0.9243747735009291 1:3722.7377 2:1076.4881 
-0.9243703448513496 1:3819.9023 2:1135.6627 
-0.9244025325998142 1:3889.4902 2:993.59352 
-0.9240151570526199 1:3442.2259 2:1307.285 
-0.9243858284134179 1:3716.7554 2:1144.511 
-0.9244007181664041 1:3708.2338 2:1201.2494 
-0.9244029743952524 1:3676.3188 2:1155.3568 
-0.9243408072867452 1:3822.1477 2:1016.9792 
-0.9244514433186565 1:3678.3936 2:1178.2806 
-0.9244485816346408 1:3414.8264 2:1270.4891 
-0.9242950520875127 1:3332.8421 2:2811.3231 
-0.924397760791861 1:3535.9098 2:1315.5864 
-0.9239314876518326 1:3328.2576 2:1386.7398 
-0.9239719470461587 1:3120.8395 2:1563.4117 
-0.92390974858228 1:2862.5753 2:2327.6949 
-0.9239109159856477 1:3175.3249 2:1656.2167 
-0.9242943123239296 1:2683.8934 2:2709.7745 
-0.9243261643677934 1:3510.0043 2:4180.3034 
-0.9243665686100369 1:3752.9896 2:1674.0274 
-0.9240136439686 1:2764.2758 2:2815.0421 
-0.924022225095634 1:2880.02 2:2425.5078 
-0.9240841802761679 1:2702.8047 2:2693.4091 
-0.9242087810002758 1:2410.6027 2:3269.7365 
-0.9244550292747404 1:3178.7804 2:2079.3731 
-0.9244328628271997 1:2207.1063 2:3749.9736 
-0.9243974997658151 1:2341.3716 2:3126.0086 
-0.9244053298898921 1:2468.7198 2:3831.2435 
-0.9244296404488669 1:2771.3141 2:2766.5999 
-0.9243943176227691 1:1713.1176 2:3800.7048 
-0.9243612322484376 1:1961.5976 2:3967.906 
-0.9243878118108662 1:1765.4752 2:3424.4894 
-0.9243454159594312 1:1955.7072 2:3271.252 
-0.9243390209349436 1:3143.3014 2:5769.6357 
-0.9243402376875782 1:1361.6811 2:3990.0234 
-0.9243261722309395 1:1502.4791 2:3909.0455 
-0.9243212290488478 1:1903.8991 2:3372.3096 
-0.9243211385759234 1:4293.495 2:7507.2494 
-0.9242762086866344 1:2413.5724 2:3031.4415 
-0.9242769627087498 1:1984.8092 2:3976.1046 
-0.9247370825677386 1:1994.4029 2:3403.0931 
-0.9245922623730984 1:3209.2902 2:6682.2175 
-0.9244325346776948 1:3760.179 2:8084.9927 
-0.9244352966989112 1:5215.4318 2:9473.0921 
-0.9244132087143693 1:6273.4969 2:10091.148 
-0.9244152699345835 1:3858.0705 2:7731.4755 
-0.9244181821527773 1:5870.9952 2:10086.461 
-0.9244181821527773 1:5036.6953 2:9062.8787 
-0.9243157935035629 1:2776.2861 2:6652.3602 
-0.9242809387711117 1:4748.9469 2:8629.4219 
-0.9242706366615576 1:2550.1993 2:6384.9865 
-0.9241761438009706 1:2735.5548 2:6997.3375 
-0.9241709083922824 1:2558.9437 2:6197.2392 
-0.9241712175722941 1:2428.4199 2:6550.2741 
-0.9238293012307073 1:1646.3414 2:5228.646 
-0.9237986041184405 1:1516.1744 2:5166.122 
-0.9237771314117532 1:1328.4236 2:5284.7853 
-0.9237798659824884 1:2341.9911 2:6118.0451 
-0.9243363796296445 1:2461.1851 2:6118.5279 
-0.9243285006171396 1:2496.6375 2:6277.2734 
-0.9239219134704461 1:2077.761 2:5543.3077 
-0.9243803781486115 1:1696.4216 2:5987.6249 
-0.924381737926451 1:2907.8329 2:7301.5706 
-0.9243883733605535 1:3525.4663 2:7719.2666 
-0.9244296404488669 1:2148.7132 2:6039.0575 
-0.9244046510039526 1:1462.6344 2:5123.8933 
-0.9243973336120072 1:3488.0144 2:2218.9438 
-0.9243963658900012 1:3488.7684 2:2725.6719 
-0.9243497337297248 1:2547.1313 2:3227.8313 
-0.9243497337297248 1:3746.0108 2:1603.1303 
-0.9243355770499644 1:3097.6962 2:2220.3528 
-0.9242871344936904 1:3481.2825 2:2189.8664 
-0.924048237288325 1:3559.638 2:1557.3779 
-0.9240565466409063 1:2539.2326 2:2154.2394 
-0.9239310139518391 1:2419.9174 2:2408.4279 
-0.9238328664951951 1:3296.4498 2:2109.2914 
-0.9238381610756659 1:2587.4892 2:3966.7197 
-0.9237817399770281 1:2152.898 2:3609.9742 
-0.9237805583776382 1:2035.3394 2:3817.2199 
-0.9242942801547929 1:3742.4552 2:6063.8945 
-0.9242940160058567 1:2188.8451 2:2726.0331 
-0.9242995895307915 1:2720.3195 2:2378.2944 
-0.9243260709084249 1:1947.7781 2:3553.4769 
-0.9243381165091752 1:2516.0761 2:2950.2949 
-0.9243702865230997 1:1855.733 2:3267.2535 
-0.9244035481887126 1:2693.0978 2:3675.5907 
-0.9244496158337903 1:2049.0291 2:4702.5173 
-0.9244510159466979 1:2353.9736 2:2869.4493 
-0.9241450664112846 1:2474.3998 2:2815.5837 
-0.9241390813516681 1:3498.2761 2:1770.6781 
-0.9244493961532825 1:4138.8987 2:682.68596 
-0.924448092256424 1:4096.4086 2:785.87709 
-0.9240780525621399 1:4041.8965 2:803.51997 
-0.9244007181664041 1:3869.3576 2:1033.3912 
-0.9243411731068134 1:3787.7012 2:1088.4 
-0.9244070402609288 1:4333.1351 2:802.71757 
-0.9244087966842942 1:4406.2685 2:725.67708 
-0.9243608268575125 1:4251.3403 2:763.52039 
-0.9243196383035664 1:4029.0919 2:1104.4744 
-0.9242914387813698 1:4029.6185 2:919.72435 
-0.9244545810133439 1:4045.8705 2:791.08169 
-0.9237635022148781 1:3356.8118 2:1667.6765 
-0.9237889421929473 1:3818.9358 2:980.67682 
-0.9242945590881411 1:3385.8701 2:1521.2142 
-0.9243224377667484 1:3739.4159 2:1261.8154 
-0.9243208409407482 1:3757.7366 2:1265.0535 
-0.9238387132477255 1:4072.7537 2:1132.6292 
-0.9243945912535092 1:3807.6595 2:1031.2746 
-0.9239241592569165 1:3583.0951 2:1614.4969 
-0.924293409813763 1:4252.369 2:840.25125 
-0.9239829594137814 1:3515.0536 2:1586.1281 
-0.9241647854022896 1:3900.7126 2:955.09707 
-0.924167410700675 1:1583.9346 2:3994.3399 
-0.9242762694792617 1:1827.0588 2:4982.9536 
-0.9245035774055341 1:2635.9744 2:5138.3834 
-0.9245009725902296 1:2110.3768 2:3385.7762 
-0.9246934066031368 1:4287.9474 2:7129.6567 
-0.9247097914450741 1:4536.0803 2:7600.8754 
-0.9244494512759711 1:1957.4405 2:4401.9575 
-0.9247113544753645 1:4685.8579 2:8442.1701 
-0.9242943123239296 1:4137.3627 2:7216.1028 
-0.9242943123239296 1:2214.5899 2:4167.3319 
-0.924293039643472 1:1706.3289 2:3696.1523 
-0.9243608268575125 1:4833.2168 2:7291.6155 
-0.9243399145344833 1:2786.3909 2:3323.3373 
-0.9243803781486115 1:1984.594 2:3232.1662 
-0.924381737926451 1:1990.0186 2:3622.3912 
-0.924400592452956 1:2040.5049 2:4074.9279 
-0.9244093661314903 1:3123.7964 2:2482.0707 
-0.9243998420355897 1:2338.6227 2:2977.0908 
-0.9244493961532825 1:1539.6205 2:3830.7933 
-0.9244514163693422 1:2117.2562 2:2790.522 
-0.9244545710908394 1:1569.306 2:3367.5969 
-0.9243758104067152 1:1995.4982 2:3393.6486 
-0.924389274235381 1:1732.9804 2:3485.3244 
-0.9243268080300915 1:2132.7489 2:2953.9987 
-0.9243497337297248 1:1938.2146 2:4841.7634 
-0.9241674215270403 1:3352.0794 2:6950.8643 
-0.9242320488825267 1:2960.2621 2:6512.1533 
-0.924079491763157 1:3171.6687 2:7093.2398 
-0.923845553292328 1:2945.9719 2:6441.032 
-0.9237999191500839 1:2640.0904 2:6021.3995 
-0.9244155035705075 1:2315.4174 2:5209.5053 
-0.9237817399770281 1:3724.1653 2:6953.9551 
-0.9237816223325831 1:1801.5692 2:4814.4987 
-0.924294859707872 1:1449.1271 2:5320.6456 
-0.9243814039237561 1:2598.1536 2:5747.8604 
-0.9243994558287383 1:5454.0242 2:9162.0138 
-0.924403284280758 1:2485.0213 2:6301.2582 
-0.9244510159466979 1:3177.651 2:6376.3282 
-0.9244044609332444 1:3288.555 2:6857.3422 
-0.9239310139518391 1:3427.4541 2:6939.3275 
-0.9238738822426988 1:3373.5752 2:7575.964 
-0.923990893883887 1:5810.1167 2:9308.7079 
-0.9240482691124451 1:3228.2666 2:6187.5931 
-0.9240066099416492 1:5443.7585 2:8578.727 
-0.9240510082535982 1:5921.5727 2:9523.9358 
-0.9240773084629166 1:2015.5909 2:5449.318 
-0.9243953312561132 1:3397.7475 2:7197.4117 
-0.9244177360795599 1:1936.7709 2:5273.1523 
-0.9244193127312605 1:2680.7133 2:4211.8377 
-0.9243963658900012 1:3062.7153 2:1890.5566 
-0.9240610021439277 1:2931.188 2:1910.3084 
-0.9247116747993475 1:2633.2607 2:3068.6915 
-0.9247116747993475 1:2813.7273 2:2694.8412 
-0.9239703564180621 1:2601.4204 2:2706.2926 
-0.9239524422748244 1:3081.8173 2:1813.5939 
-0.9238698822153188 1:2210.9476 2:3292.4069 
-0.9243390209349436 1:2576.493 2:2753.4157 
-0.9238121688870797 1:3051.7931 2:3434.9563 
-0.9240377046775968 1:2787.7157 2:2875.2352 
-0.924183560937095 1:2516.367 2:2450.2624 
-0.9241283906394642 1:2437.9107 2:2705.7954 
-0.9242843135659629 1:2937.8172 2:1954.3288 
-0.9242834312077377 1:3329.378 2:2593.9457 
-0.9243971971320011 1:2980.1923 2:3249.5034 
-0.9243969923167119 1:2783.6184 2:2196.2447 
-0.9243284015690726 1:4000.121 2:1516.4964 
-0.9243618823725444 1:3465.2828 2:1343.0629 
-0.9244045658049227 1:3953.5163 2:1059.5889 
-0.9239894627774128 1:4060.9674 2:1425.8254 
-0.9240778583560714 1:3856.5691 2:1745.04 
-0.9244053309495277 1:4071.6014 2:1489.7784 
-0.9242041002591047 1:3651.4484 2:1214.5402 
-0.923773184804446 1:3531.3216 2:1437.1984 
-0.9243212343920622 1:4097.4663 2:859.23695 
-0.9238417870256939 1:3904.8947 2:891.87726 
-0.9238667443059101 1:4010.0273 2:698.20923 
-0.9243974620829887 1:4014.5044 2:757.80622 
-0.9242119132762607 1:3830.8483 2:879.51884 
-0.9239590870048876 1:4026.641 2:854.69813 
-0.9242888164129403 1:3992.6601 2:898.17018 
-0.9243098853950589 1:3500.3203 2:1780.5786 
-0.9244276322095405 1:3415.9842 2:2532.1883 
-0.9240403098977906 1:3800.474 2:1811.8435 
-0.9240778583560714 1:3050.481 2:1955.6449 
-0.9239960512387621 1:3012.2463 2:2527.5949 
-0.9242758603742918 1:2954.8527 2:2343.2594 
-0.924398190463023 1:3039.4728 2:2145.8388 
-0.9244315918228632 1:2564.7137 2:2784.7554 
-0.9247504175145167 1:2830.5556 2:2603.0382 
-0.9247383535117477 1:2492.6859 2:2766.5448 
-0.9240773084629166 1:2449.3889 2:2652.705 
-0.9247269877271134 1:2552.7433 2:2938.5529 
-0.9246870421829538 1:2983.4933 2:1771.6302 
-0.9242954508772374 1:3559.27 2:1609.0138 
-0.9238627902708763 1:2460.7369 2:2660.2995 
-0.9243376239191654 1:2341.7563 2:3377.205 
-0.9239089698020437 1:3946.1568 2:6472.8617 
-0.9239077227449967 1:4367.8738 2:6654.2654 
-0.9243608268575125 1:2033.2963 2:4393.4527 
-0.9243953312561132 1:1607.5991 2:3689.86 
-0.9244035481887126 1:3465.4513 2:6349.0415 
-0.9247574706651009 1:2025.8414 2:5027.7462 
-0.9244087803071993 1:1568.8042 2:3809.3035 
-0.9244494189127348 1:2453.0502 2:4900.5431 
-0.9243194014015528 1:2252.4439 2:4875.5187 
-0.9239362874401086 1:2199.1692 2:4256.8385 
-0.9241414747023544 1:2132.4626 2:4252.4266 
-0.9242925255909381 1:3131.7206 2:2014.4162 
-0.924351008990846 1:4368.5061 2:522.87691 
-0.924289405159567 1:4600.0036 2:734.54852 
-0.9240610021439277 1:4243.6497 2:795.90781 
-0.9240781995823319 1:4276.1136 2:718.2127 
-0.9237770786258253 1:4077.2479 2:1268.413 
-0.9241529652500104 1:4235.5743 2:686.62348 
-0.92439686617886 1:4249.34 2:655.56687 
-0.9238347501421056 1:4259.0718 2:704.62399 
-0.923847657794659 1:4226.847 2:1011.7955 
-0.9244891930849822 1:4249.7181 2:942.62707 
-0.9247203878243092 1:3484.5129 2:1627.1874 
-0.9243737389396056 1:3303.1814 2:1661.2461 
-0.9240789000546089 1:3045.7354 2:2510.8858 
-0.9243211964779166 1:3612.1587 2:1768.7363 
-0.9243268080300915 1:3540.7017 2:2197.4784 
-0.924407040076526 1:3308.5559 2:2037.5864 
-0.9243197776718511 1:3188.1018 2:2485.2661 
-0.9244485816346408 1:2941.0622 2:2946.6831 
-0.9240841802761679 1:3587.4359 2:1320.0114 
-0.9244045658049227 1:3229.3101 2:2060.7818 
-0.9244079244775885 1:3267.3951 2:2183.8871 
-0.9244510159466979 1:3472.5497 2:1538.4692 
-0.9241425782472225 1:2813.0726 2:4078.9335 
-0.9243211964779166 1:2035.726 2:4614.3373 
-0.9243374005838816 1:2174.9253 2:4813.9725 
-0.9243261643677934 1:3903.692 2:7709.528 
-0.9243968404270675 1:5863.9858 2:9014.9785 
-0.9244080504632874 1:3840.726 2:6893.3822 
-0.9244035481887147 1:3300.4608 2:6286.3082 
-0.9242955196604786 1:2540.7966 2:5869.971 
-0.9243678131299553 1:1900.4491 2:5482.9019 
-0.9247510908242784 1:2012.6523 2:5158.1544 
-0.9247284627047723 1:2287.6014 2:6105.5243 
-0.9244035481887147 1:5194.3624 2:8289.0141 
-0.9244093105611071 1:2045.2861 2:4114.8047 
-0.9244510159466979 1:4117.8338 2:531.41974 
-0.9240515864105234 1:3860.4393 2:910.71289 
-0.9243261722309395 1:4045.5459 2:872.24531 
-0.9243747735009291 1:3594.4993 2:1446.4938 
-0.9243285006171396 1:3432.8403 2:1532.1494 
-0.9243664793355015 1:4170.8016 2:768.11869 
-0.9243374005838816 1:3843.4101 2:1230.2076 
-0.924078211164877 1:4162.1703 2:1063.5246 
-0.9243982422130419 1:4231.0165 2:447.09206 
-0.9241708883103156 1:4001.01 2:1296.6039 
-0.9244177360795599 1:4274.9171 2:421.27297 
-0.9237798659824884 1:3897.8211 2:1008.3224 
-0.9245922623730984 1:4062.1329 2:797.8574 
-0.9240768664903176 1:3964.2927 2:867.15552 
-0.9243503769087437 1:3484.6087 2:1340.1168 
-0.9244296404488669 1:3717.5953 2:923.68986 
-0.924292338969299 1:3546.5268 2:1652.5214 
-0.9243960854519921 1:3623.3155 2:1988.2836 
-0.9244325346776948 1:3933.4792 2:927.43108 
-0.9243676564423799 1:4222.0246 2:596.13557 
-0.924289405159567 1:4216.1091 2:548.44311 
-0.9241712175722941 1:4296.3759 2:672.85824 
-0.9241761438009706 1:3828.5665 2:1039.0886 
-0.9237986740835439 1:2463.136 2:5840.6526 
-0.9243196383035664 1:2481.7451 2:5875.5587 
-0.9242507979908292 1:3510.4213 2:7382.9506 
-0.9242945604206274 1:3445.825 2:7006.1222 
-0.9242023088820879 1:2473.9058 2:6158.653 
-0.9243665686100369 1:2196.7653 2:4529.1855 
-0.924287213192538 1:2468.5387 2:6111.1744 
-0.9244105233306461 1:2114.5721 2:4630.2781 
-0.924078211164877 1:2515.9504 2:4435.0785 
-0.9238389074370202 1:2325.8803 2:6390.4882 
-0.9243161651974091 1:2987.9989 2:6446.7688 
-0.9244152699345835 1:2102.4923 2:4159.8141 
-0.9241995320137786 1:2413.4162 2:3931.1248 
-0.9238786464745309 1:2885.5879 2:6698.1038 
-0.9244285112570234 1:3379.8787 2:4616.7919 
-0.9247098300204912 1:3870.1236 2:7739.01 
-0.9243676564423799 1:3380.0203 2:6532.4778 
-0.9243039963376753 1:4067.5915 2:8079.0919 
-0.9244080703789233 1:4212.6884 2:6957.0937 
-0.9242955504479158 1:2837.6892 2:5590.726 
-0.924381737926451 1:3784.7947 2:6987.7161 
-0.923773184804446 1:2984.7147 2:6797.1964 
-0.9239475152231529 1:2396.547 2:4724.4417 
-0.9242861140020432 1:2507.4294 2:5410.6163 
-0.9239885132308788 1:1620.9079 2:4523.7673 
-0.924020737250877 1:1507.9908 2:5220.8682 
-0.9240791472009753 1:2306.3072 2:5888.2157 
-0.9244953973761559 1:4884.5781 2:7967.0949 
-0.9245039401393786 1:1764.6869 2:5518.7704 
-0.9247574706651009 1:1492.834 2:5253.3289 
-0.9243279307259472 1:2499.9089 2:5666.8886 
-0.9240774966349068 1:3443.6763 2:6139.2779 
-0.9246870421829538 1:2432.5602 2:5931.1482 
-0.9244146201470641 1:2728.3796 2:6429.2004 
-0.9239891779520202 1:6393.082 2:9516.5649 
-0.9242938809383552 1:1346.9599 2:5505.2221 
-0.9243207085588709 1:3022.6824 2:5214.9751 
-0.9243542121401218 1:2639.6545 2:3819.2291 
-0.9243962888244394 1:3479.4489 2:6789.3241 
-0.9238231025660035 1:3181.6877 2:6596.488 
-0.924397155419281 1:3842.4627 2:7307.1546 
-0.9244041135480184 1:2698.4157 2:3559.8047 
-0.9238386484708662 1:2270.3998 2:3814.9002 
-0.9243960854519921 1:2655.2442 2:3221.3077 
-0.9242938809383552 1:2508.3344 2:3133.5812 
-0.9244047268149537 1:2176.1852 2:3245.2189 
-0.9243370227871598 1:1769.2118 2:3709.4875 
-0.9242478690018351 1:3300.1954 2:2611.5267 
-0.9240068936286381 1:4473.6817 2:1011.5553 
-0.9243284015690726 1:4523.1583 2:310.54459 
-0.9238713909021641 1:4700.9264 2:695.87483 
-0.9243755139287552 1:4477.3911 2:1121.4079 
-0.9247378334238873 1:4850.4653 2:666.60252 
-0.9244354135206245 1:4559.4343 2:456.63358 
-0.923970657146559 1:4585.0596 2:811.6587 
-0.9243508671451415 1:4295.3142 2:604.06856 
-0.9242769193466083 1:4135.3891 2:1578.7247 
-0.9244352966989112 1:4490.3279 2:625.97529 
-0.9243969923167119 1:4127.6871 2:1081.4257 
-0.9244226195193949 1:3849.8741 2:854.03444 
-0.9244146201470641 1:3611.1109 2:1142.226 
-0.924404173688488 1:3600.547 2:1691.645 
-0.9239969836977766 1:3587.2076 2:1134.7341 
-0.9243755415029226 1:3775.6821 2:1001.6228 
-0.9239060368897408 1:3592.16 2:1354.834 
-0.924287259033885 1:3871.0945 2:1044.6464 
-0.924295665867592 1:3911.7396 2:1198.163 
-0.9244236814956983 1:3749.8684 2:1424.6413 
-0.9243755139287552 1:3904.8068 2:1100.0608 
-0.9238949815592828 1:3978.968 2:1110.4983 
-0.9244786302454879 1:4095.0255 2:1187.1557 
-0.9243112973656192 1:2393.8167 2:4463.8291 
-0.9237817399770281 1:1874.7791 2:5139.8302 
-0.9238396571750898 1:2320.8873 2:5582.616 
-0.9238941731307543 1:2352.5336 2:4925.8478 
-0.9239203283029623 1:1644.5154 2:4071.279 
-0.9240068936286381 1:2883.0623 2:6238.3744 
-0.9240985529996637 1:4939.3013 2:8312.6905 
-0.9241827356419667 1:2361.838 2:4993.3453 
-0.9244168821260615 1:2078.8228 2:4662.7397 
-0.9243527147726176 1:2221.6991 2:5557.2717 
-0.9243402304853869 1:1901.0886 2:4772.5575 
-0.9243970926536348 1:1738.8015 2:5072.2666 
-0.9244003190974291 1:2617.128 2:3936.3853 
-0.924403284280758 1:3741.3393 2:1531.1142 
-0.9244087966843511 1:3162.2829 2:1986.3482 
-0.9243804295720657 1:3369.396 2:1629.8675 
-0.9242895265068053 1:3874.9411 2:1052.8677 
-0.9243752452181497 1:3878.1976 2:1081.0745 
-0.9243741355750905 1:4248.6843 2:1157.9779 
-0.92429335004344 1:3968.3237 2:1190.3506 
-0.9242940162887892 1:3481.0873 2:1572.7529 
-0.924294859707872 1:3712.3901 2:1379.0759 
-0.9247116747993475 1:3789.4893 2:1332.1863 
-0.9247098300204912 1:3009.9523 2:2180.8869 
-0.9245039997151243 1:2307.3498 2:4219.4586 
-0.9244892525789599 1:2367.9036 2:5427.3278 
-0.924479544857488 1:2058.6577 2:4548.8873 
-0.9240397749817716 1:1709.2734 2:4047.8985 
-0.923980732695589 1:2143.6244 2:5519.1771 
-0.9239502100411241 1:1428.9599 2:3578.9546 
-0.9239940754659176 1:1916.9647 2:4533.6563 
-0.9239499501753008 1:1835.0413 2:4871.6754 
-0.924322828372498 1:1819.873 2:4650.5136 
-0.9238166664899545 1:2198.9548 2:4997.6525 
-0.9242920404989862 1:2315.4812 2:5363.0701 
-0.9243943176227691 1:1760.7059 2:4458.0148 
-0.9243846985703195 1:2865.6529 2:3230.4291 
-0.9243608603624772 1:3383.1597 2:1623.0953 
-0.9243407706119826 1:2812.8141 2:1965.7073 
-0.9243620389458338 1:2775.3192 2:3435.1354 
-0.9241399893176294 1:2693.9458 2:2645.4538 
-0.9244391803748183 1:2967.136 2:2708.0395 
-0.9244234733251331 1:3472.0368 2:1556.2572 
-0.9247312333096499 1:3886.9896 2:1165.9422 
-0.9244181821527773 1:3054.2305 2:1969.309 
-0.9245077860431895 1:3300.2851 2:1638.0383 
-0.9241011914187088 1:3353.6818 2:1828.7727 
-0.9239342807517161 1:3341.794 2:1661.6738 
-0.9239270832162206 1:3863.6286 2:1067.5046 
-0.9239745138647399 1:3936.3198 2:1038.2657 
-0.9240778583560714 1:3672.5071 2:1646.5109 
-0.9237869309308929 1:3274.4667 2:2102.8978 
-0.9243741415234058 1:3443.4571 2:2229.0224 
-0.9242851506565659 1:3492.7909 2:1822.8077 
-0.9240075439641754 1:3657.7371 2:1336.8044 
-0.924015156712559 1:3301.22 2:1814.1671 
-0.9238735684739277 1:3439.8236 2:1634.6768 
-0.9238738822426988 1:3076.9247 2:1909.3036 
-0.9237897601859184 1:3273.3528 2:1850.7259 
-0.9242769193466083 1:3009.6086 2:2248.4084 
-0.9243208836623048 1:2237.5508 2:2827.9939 
-0.9243739772448559 1:2641.6769 2:2942.4967 
-0.9244234733251331 1:2943.3742 2:3721.205 
-0.9244545710908394 1:2862.1497 2:2156.5521 
-0.92436286423513 1:1862.2485 2:3452.2705 
-0.924344436720242 1:2758.4189 2:3283.9993 
-0.9243535692528176 1:2809.6925 2:2726.6318 
-0.9239444821188988 1:2768.3168 2:2187.696 
-0.9239491620556258 1:2241.1888 2:2732.0502 
-0.9243132394344064 1:2432.676 2:2642.6151 
-0.9243363796296445 1:2333.933 2:2586.3498 
-0.9243708607057295 1:3493.2158 2:7165.5495 
-0.924395258933104 1:2902.7038 2:6416.0139 
-0.9244030684704652 1:2706.3983 2:6605.6687 
-0.924400866371752 1:2244.4528 2:5449.7098 
-0.9239269954394183 1:1695.9245 2:5500.1131 
-0.9238962167527586 1:1948.4676 2:4780.399 
-0.9243662335425274 1:2245.2261 2:5235.6085 
-0.9240186207435498 1:2373.8566 2:5192.9062 
-0.9244193862575125 1:1907.2266 2:4517.8072 
-0.9244308983344439 1:1243.3656 2:3987.0313 
-0.9244285112570234 1:2366.4134 2:4780.4727 
-0.9243692688700651 1:2690.9293 2:6356.0791 
-0.9243420706122417 1:2463.8807 2:5201.6945 
-0.9243261722309395 1:2151.2178 2:3559.8294 
-0.924322828372498 1:2499.4584 2:2822.4709 
-0.9242759571718364 1:2250.3953 2:2553.1765 
-0.9244320702639659 1:2249.195 2:2849.494 
-0.9244146201470598 1:1972.6552 2:3044.5367 
-0.9244152699345805 1:2654.4695 2:2764.642 
-0.9242706366613841 1:1989.1724 2:3909.5498 
-0.9241712175722941 1:2033.0887 2:3437.1281 
-0.9237771314114395 1:2222.0449 2:3964.0522 
-0.9239925568512609 1:2611.9948 2:2577.5898 
-0.9243416671015907 1:4117.6235 2:6209.425 
-0.92436191589837 1:1581.4239 2:5029.2842 
-0.9243803821448443 1:2149.8478 2:5632.8968 
-0.9244105233306461 1:1586.7819 2:5304.5589 
-0.9243506534696095 1:1875.6444 2:5684.5089 
-0.9242948484500741 1:1914.4926 2:5947.4826 
-0.9241413957061271 1:2225.0717 2:6235.1899 
-0.924078211164877 1:1378.8953 2:5680.2441 
-0.9240781995823319 1:1332.1691 2:5509.3304 
-0.9240779459404058 1:3887.8741 2:7737.6747 
-0.9238395488533493 1:2929.2787 2:7138.6551 
-0.9237816223325831 1:3160.0059 2:7195.2951 
-0.9242934859783285 1:1561.998 2:5697.4842 
-0.9243376076789169 1:1686.1496 2:4984.2447 
-0.9244340380145549 1:2593.6195 2:3474.2522 
-0.9243953312561132 1:2616.2098 2:2523.2695 
-0.9237730752693456 1:3178.9581 2:2097.8751 
-0.9242759571718364 1:3339.0335 2:2149.9752 
-0.9239390644868299 1:2700.8726 2:2683.5068 
-0.9239325127253424 1:2833.2703 2:4249.8965 
-0.9242125284078072 1:2878.1097 2:2687.739 
-0.9245039401393786 1:2626.3898 2:4603.1978 
-0.9243612322484376 1:2477.3066 2:2806.46 
-0.9247363204880068 1:1939.7571 2:3735.4176 
-0.9247097914450741 1:1883.9419 2:3658.0965 
-0.9239046526668899 1:2744.2551 2:2058.2506 
-0.9242955504479158 1:3893.3321 2:1493.232 
-0.9242930078309959 1:3342.2271 2:2891.5613 
-0.9243416671015907 1:3451.7617 2:1689.627 
-0.9244087966678315 1:3043.9044 2:2038.952 
-0.9243878118108662 1:2869.8537 2:1974.6426 
-0.9241414559674941 1:2802.0429 2:2432.4311 
-0.9244525875305301 1:2839.6256 2:2918.5096 
-0.9243970926536348 1:2494.4885 2:2938.5493 
-0.9244105233306461 1:3539.7862 2:1760.6157 
-0.9241414747023544 1:3786.4887 2:1616.6382 
-0.9237897601859184 1:3345.2073 2:1456.4529 
-0.9237616535420263 1:3786.824 2:1281.9988 
-0.9243303340125821 1:4078.7272 2:579.48172 
-0.9237817127229009 1:4457.145 2:667.09549 
-0.923956138083003 1:4113.2275 2:1100.6381 
-0.9242818369556525 1:4372.5337 2:652.15913 
-0.924351008990846 1:4110.0923 2:985.67868 
-0.9243683592488097 1:4614.9087 2:551.08687 
-0.9240265048692911 1:4354.5756 2:626.08895 
-0.9244013098981503 1:4267.5577 2:1095.9893 
-0.9239443932526765 1:4396.8856 2:941.24576 
-0.9242943123239296 1:3855.7988 2:1758.934 
-0.9244094754446355 1:2714.8494 2:3034.7528 
-0.9242739824527665 1:2425.2301 2:5028.0246 
-0.9242747242956129 1:2306.8636 2:4775.1927 
-0.9243187080377486 1:3604.2868 2:6806.8149 
-0.9244497666831616 1:3667.5746 2:6834.2996 
-0.9240356787973275 1:3928.5427 2:7939.1083 
-0.9240659071637837 1:3298.9293 2:6404.0541 
-0.9242715120074554 1:4019.6521 2:8347.2452 
-0.9244701884145979 1:4742.284 2:8476.8831 
-0.9247205892159955 1:3786.0429 2:6771.0456 
-0.9247138643471445 1:3522.6583 2:6437.4173 
-0.9243208836623048 1:3399.1017 2:7400.6001 
-0.9239803763759339 1:3239.6105 2:5861.9338 
-0.9244040782692163 1:3111.6089 2:2362.8616 
-0.9242768314430017 1:3053.5398 2:2500.1784 
-0.9244545710915085 1:2349.5642 2:2772.1433 
-0.9240791596124347 1:2281.4049 2:3003.2186 
-0.9239585155728895 1:1949.3654 2:4238.4838 
-0.923864053428712 1:2623.7927 2:3419.6248 
-0.9244468111678428 1:2142.7433 2:3213.0455 
-0.924015156712559 1:2152.7513 2:3193.2238 
-0.9247574706651009 1:2406.4601 2:3918.2719 
-0.9244296404488669 1:2745.546 2:2579.3131 
-0.9247284631206045 1:2060.4866 2:3401.9252 
-0.9237817399770281 1:1800.1382 2:3504.8305 
-0.9241067707879922 1:2117.3008 2:3725.5572 
-0.9238386484708662 1:2509.3097 2:3579.3424 
-0.9237897601859184 1:4037.2069 2:6829.3329 
-0.9242709858985994 1:1924.5785 2:3955.8483 
-0.9237816223325831 1:1895.7587 2:3900.327 
-0.924710260072157 1:4717.8166 2:7127.3196 
-0.9243285006171396 1:1700.442 2:3660.8544 
-0.924745815382527 1:1745.5322 2:3305.3627 
-0.9238069622928262 1:2019.5185 2:4602.7059 
-0.9240761981347473 1:2011.7172 2:3308.0058 
-0.9242296503762387 1:2125.5216 2:4243.9365 
-0.924398190463023 1:2749.1921 2:2929.0207 
-0.9242757090962171 1:3239.9016 2:2093.6832 
-0.9240777878284954 1:1980.9401 2:3282.2534 
-0.9244193127312605 1:2582.9894 2:2943.4189 
-0.9243608020028881 1:3007.8628 2:3099.8363 
-0.924400866371752 1:2278.86 2:2790.8123 
-0.9243212290488478 1:2916.926 2:1912.4175 
-0.9242507979908292 1:3224.7402 2:2190.1984 
-0.9244550292747404 1:2679.8888 2:2417.6412 
-0.9243608268575125 1:1746.0645 2:3888.7918 
-0.924277574445477 1:2816.0553 2:2500.175 
